产科主任	-0.35293832,0.50732613,0.77973932,0.3555342,0.31183779,0.35799703,-0.21720175,0.29658714,-1.84564269,-0.11510744,-0.56803858,-0.05894799,-0.99175996,-0.01595464,-0.77500266,-0.26828399,0.06528571,-0.7559002,0.67196244,0.71499068,-0.95669127,0.45771173,0.112796,-0.1902253,-0.15027781,-0.33048421,0.76752812,-0.06372253,-0.71102148,-1.37847328,0.52194136,0.53614807,0.6712389,-0.08015598,-1.11739671,-0.7674579,-0.91222429,0.53658295,-0.10816643,0.77829069,-0.01566215,-0.14036632,0.91317296,-0.41062486,-0.47020695,1.30797517,0.63499188,0.45982501,-0.86705965,-0.37318134,-0.37576923,0.49187598,-0.37674856,1.83612502,-0.46988735,0.51636112,1.59381616,-0.05176525,0.12803499,-0.52176011,0.13392736,0.23002774,-0.88478786,-2.1152792,0.44962707,0.16853321,1.59986794,0.50512171,-0.75581771,0.02483023,0.6364913,-0.43051019,-0.43232927,1.33940947,0.27989504,-0.56790978,-0.28590465,-1.38922083,-0.35804453,0.76822948,-0.30888394,-1.45950711,0.43760517,-0.49477422,-0.89733428,0.77780914,-0.27222416,-1.41779041,0.48003867,-0.61152464,1.83892262,-1.54667914,0.85393363,-0.4359906,0.78694302,0.97846478,0.47363257,1.03433311,-0.65267438,0.10190362,-1.6638999,-0.28922683,-0.75251955,-1.42602336,1.35677063,-1.28531742,-1.39904678,0.28296202,0.09532845,1.14535773,-0.43251204,-0.956523,-0.81706572,0.28555706,-0.90942293,-0.22775126,-0.44994617,0.55041724,1.09373951,0.26357397,0.43890643,0.51266122,-0.2714681,-0.92680693,-0.33312145,-1.01102233,0.20301235,-2.06741261,-0.28541684,-1.03872728,0.34073529,1.54843628,-0.1859871,0.45660689,1.05330956,-0.54230654,0.04067596,0.52824229,0.36649451,-0.44230521,0.52338797,-0.05029831,-0.17575671,0.31612059,3.32862282,0.19226873,0.54215246,-0.45604298,-0.11756932,1.62989366,-0.92427659,-0.73899794,1.83203542,0.53360307,-0.37987897,-0.5247702,-0.18530726,0.41629985,0.35245335,-0.63109428,-0.03458644,0.25180665,-1.52417004,0.00535387,1.86209202,-0.10991005,-0.42184815,-0.74285859,0.87275761,-0.57360274,-0.13230555,2.02400279,0.03475458,0.68704891,-1.50026023,0.50719756,0.73682803,-0.04464652,-0.04954951,-0.24225889,0.61447769,0.55491191,-0.17070472,0.92861509,-0.67330027,1.52809131,-0.44195414,-0.64685494,1.28374541,0.61205518,-0.21378686,0.4551346,-0.07888776,2.38184977,0.80510777,-0.27577269,0.2375689,-0.68326896,-0.08353449,1.21051431,0.11430737,-2.60286474,0.28720507,0.53824377,-1.38027942,0.05811603,-0.20042928,-1.31431425,0.63879591,-0.05736575,-0.16172868,-0.44688818,0.40108815,0.13188012,0.03405601,-0.58611232,-0.81214875,-1.42984736,-0.27947605,0.3358933,-0.69733626,0.44712353,-0.55186826,1.43815947,0.91447908,-0.27192262,-0.40803638,0.03837164,0.47061995,-0.90343779,-1.58471,-0.90015405,1.50641823,-0.30418637,-2.1924789,-0.49581572,-0.47467268,1.54523122,-1.4010725,0.41359356,-0.12849303,-0.05218855,-0.76121181,2.09915805,-0.76315355,0.84444404,0.9722814,-0.21156596,-1.41547549,-1.68292105,-0.41459703,-0.3465983,-0.08011606,-1.5247221,0.1215114,-1.16877925,-0.94855863,2.03945518,-0.29404178,0.84615237,0.34955168,1.53481877,-0.15774246,0.05468876,-0.29282996,-0.53960264,0.36192846,-0.11950624,-0.7379145,0.39721665,-0.43631434,0.33796966,0.89990872,-1.76637089,-1.04487729,1.40985167,-0.51840407,-0.48084736,0.37854335,-0.24716608,0.37727961,-0.33095774,-1.55135882,-0.03028114,0.04081126,-0.35391471,1.80489123,-0.62298793,-0.52788657,0.0017596,-1.12026834,-0.20131779,-0.63176244,1.85514152,-0.19983792,0.43109551,-0.70978397,-1.25275147,-0.51314241,-1.81517446,-0.74902385,-0.22581692,-1.26027155,0.70233732,-0.32896063,-2.31404901,0.08614331,-0.24841374,-0.13496636,-0.58234221,-1.29128253,-1.27526844,0.28103569,-0.17246355,-1.04857385,0.05308075,0.00664614,-0.43455186,1.0249809,-0.14945556,-0.27157655,0.47574678,-0.38314953,1.08056915,-0.258266,0.22260945,1.15045536,-0.06815639,-0.77185553,0.18286137,-1.16077828,0.26078099,1.79432631,0.08981752,0.3834151,0.97861987,-0.44480416,-0.11148629,-0.74171191,-0.96805519,0.10811552,-0.37930933,0.05788635,-0.5321762,0.025393,-0.78286046,1.27836859,-0.87037057,-0.00927322,-0.40596652,-0.49614474,0.44122157,-0.12122873,-1.3624773,0.24029736,0.66678602,0.73920614,0.3809,-0.43744305,0.05737014,-0.21773131,0.01517936,0.65225482,0.35441184,0.71936697,-0.11410701,-0.26445228,-0.07530764,0.68815333,0.45873734,0.91726822,0.34631431,-0.59515089,0.00172039,0.29413524,-0.80207735,0.55738556,0.99205065,-0.88228899,-1.52151263,-0.37145719,-0.50394231,-0.02350395,-0.33346161,-0.9308908,1.61064327,0.57422012,-0.1934288,0.61404771,-1.25748813,-1.62161791,0.49116698,0.72194618,-0.77589208,0.24563201,0.89977908,-3.02131462,0.96233422,-0.71255207,0.09737107,0.89176184,-0.43451217,1.72162485,0.0700032,1.11158848,-0.26479423,-0.0037001,0.20059444,0.4655036,0.93197942,0.65264064,0.29563281,1.91074371,0.58838993,-0.32493579,-0.29782113,0.16669422,-0.0392669,1.09922159,1.42161047,-0.386682,-0.17936765,-0.68011278,0.86484843,1.85556448,0.80972195,-0.15602849,-0.69421178,0.25126052,-0.0654853,0.28409699,0.65226942,-0.05871547,1.15526056,0.53650773,0.26208749,-1.91057813,-0.55505663,0.63116986,0.81856942,0.31675491,-0.4980441,-1.1574477,0.27436486,0.77401918,0.29996565,0.31407309,-1.20094502,1.14153481,0.24749625,-1.31426346,0.43857551,0.19528477,-0.91717958,0.39574122,-1.44398582,-0.33966351,-1.09697425,-0.38100553,0.08793265,-0.0200205,-1.10999525,-0.50198466,0.24510157,0.94119006,0.49716532,-0.70316434,0.03666446,0.05594391,-0.60871357,-1.24858391,-0.89195663,1.22993994,-0.27499074,0.47356391,1.0131979,0.34882334,0.76050252,-1.64487743,-0.30263516,-1.01913989,0.27395323,-0.36018899,-0.58525038,2.10300517,1.49547327,-0.0947554,-0.11859275,0.33281961,-0.63994086,-1.20304358,1.00535929,0.57108003,0.02465819,-1.2796216,0.21768785,0.05025769,-1.13882768,-0.40257969,1.10827911,-0.21019864,-0.07019323,-0.83340758,0.81445837,0.01306995,0.35883081,1.14488876,-1.14730656,0.26077661,0.69599515,-0.24047957,1.7299118,-1.00760865,-0.62795568,-0.61750507,0.95973754,-0.07248081,-0.21861695,-0.74676579,-0.3692691,2.28881621,-0.82993263,-1.44784081,-0.06868892,-1.02535307,-0.35420641,2.07354808,1.02986181,0.43949032,1.97772706,1.01059103,0.35329428,0.55419153,2.17621088,1.03023779,-1.33050287,0.26326525,0.05108809,0.12725471,-0.35483077,0.56522232,0.98141193,0.55807585,0.13132156,-0.15971275,0.41196182,-1.10895169,0.27664736,-0.87245661,0.86645436,-0.41688415,0.45935941,0.63878012,-0.30026761,-0.06378085,0.42499229,0.08381032,0.48033628,-0.53159213,-0.00391582,0.8195222,-1.04869449,-0.05215811,0.45420983,1.84996474,-0.21002321,0.22996233,-0.04450512,0.00401085,-1.0765847,0.07855762,-0.12594366,0.51831007,-0.50994515,-0.2365734,-0.04452607,0.26615617,0.50650257,1.73201787,-0.37945482,0.97500819,1.18940508,0.06045763,-0.4350113,-0.40940368,0.60875565,-0.19037642,0.14367203,-0.4189277,0.01645755,0.40146971,-1.52573156,-0.17964989,1.47436607,-0.66000485,-1.63136446,3.11336613,0.25280246,-0.74202824,1.04832709,0.7688117,-1.09932625,0.25795975,0.87545538,0.41473356,-0.16325079,0.80910808,-0.12309223,1.80804014,-0.12540971,-1.22821867,-0.83926111,-0.95409703,1.80481529,-0.99151486,0.08316361,-0.87367851,-1.73241794,-0.52373546,0.46575055,0.86434555,0.21022402,0.13974021,0.46396422,-0.24717492,-0.52452987,0.77979636,0.72775698,-0.64018852,-0.56006509,1.89798069,0.32591364,1.10547554,-0.62579799,0.90035015,-1.27401447,-0.04589738,0.42927423,-0.02124376,0.84125704,0.15895554,0.49317202,0.17326951,-0.21320665,0.94505423,-0.66814381,-0.55652696,-0.03640505,-0.20538761,-1.76012766,0.45619103,-0.39788139,-0.0747123,-0.60136259,-0.40033317,-0.5661509,0.40686762,0.863065,-0.13942216,-1.13898051,-1.50846851,-0.33703721,-0.38048601,2.58282018,-1.08449197,-0.6604206,-0.57683128,-1.06332791,2.44533706,0.43395185,1.06412947,-0.7775569,0.23143129,-0.10723452,0.15478049,0.949862,-0.88118011,0.90696818,-0.71300977,-0.65688509,0.22173387,-0.39802685,-1.81184995,-0.19822091,-0.7078492,-0.2028112,-0.04806873,-0.46533906,-0.92954952,0.69656783,0.43921742,-0.40394869,0.42137137,-0.60073996,1.08940935,3.42774463,0.06942698,1.38724852,-0.51642829,-1.1910696,-0.11720607,0.78890347,-0.25745815,0.68181008,-0.42171583,-0.53575122,-0.48523399,-0.8419227,0.33956906,-1.15561819,-1.15401506,-0.75913239,1.51116216,-0.13561907,-0.00399792,-0.98350018,-0.72855037,-0.41505787,-0.42775202,1.0539974,-1.41496694,0.2287,0.09740434,-0.38639417,1.37021267,-0.66322416,-0.25926903,-0.32826871,0.80653524,-0.12366963,-0.14172179,1.44789135,-0.14804681,0.43606722,-0.20445359,1.26590109,-0.76246196,0.59804469,0.17751674,0.86547047,-1.55214989,-0.57199413,0.82811648,-1.08498347,-0.46987781,-0.80243427,-1.01605201,-0.63130724,-1.25677979,0.50533408,0.53107721,0.69220304,-0.1323711,0.83287853,0.583332,1.01240313,4.23401737,-0.635647,0.13485429,0.91555864,-0.45008588,0.75215554,-2.63484311,-0.16572566,-0.77000266,1.51534748,-1.40120029,0.06018497
产科专员	-0.70382422,0.23507364,0.39759719,0.23254168,0.40796027,0.24785839,-0.28781649,0.30740285,-0.81831044,0.09105423,-0.61031234,-0.36148205,-0.99457556,0.17038269,-0.4408733,-0.58635622,0.09589986,-0.88782138,0.9699077,0.70109016,-0.76866651,0.48056999,0.07419651,-0.09622517,-0.40550885,-1.01198328,0.77618092,-0.05890237,-0.93276793,-1.08297336,0.52020657,0.65244597,1.23695409,0.19577916,-0.97081286,-0.62487805,-0.08471624,0.41949716,-1.09862363,0.90329248,-0.28132483,0.55218416,0.71356416,-1.31095469,-0.52869755,1.12985051,0.34671822,0.51655358,-0.61337161,-0.62919372,0.05454922,0.91166496,-0.36871246,2.12294841,-0.14077476,0.4418852,1.26182032,-0.07255965,0.28448591,-0.25636411,-0.19510855,0.18046536,-0.86807078,-1.36863577,0.60136873,-0.02028108,2.04331541,0.34605673,-0.62566048,0.36592701,1.22430813,-0.21535166,-0.46408796,0.66605836,-0.32435653,-0.13037975,-0.36996451,-1.75105679,-0.1434789,0.62131572,-0.27850181,-1.40625095,0.30146635,-0.17709915,-0.94566602,0.9810254,-0.61730242,-1.51822984,0.2916117,-1.5298295,1.6225034,-1.42515171,1.13614345,-0.6771962,0.57463664,0.2837407,0.53623444,0.99702579,-0.75263453,-0.35456571,-1.6367203,0.04031992,-0.9868266,-1.35497797,1.39548004,-1.76331091,-0.94559693,0.84970075,-0.36460054,1.63634551,-0.36407855,-1.31303644,-0.69663835,0.36711967,-0.84404683,-0.06822996,-0.26239416,0.61423057,0.35172895,0.98647708,0.19871128,0.47375348,-1.03513956,-0.84997463,-0.34138969,-0.86993045,0.18678673,-1.899014,-0.96218228,-0.8062399,0.16046448,1.50835216,-0.07949644,0.31714424,0.53762418,-0.48126069,-0.55204892,0.54449147,0.73873955,-0.10539562,0.02751909,0.0369451,-0.02117407,0.47913203,2.91535544,0.30512658,0.89120489,-0.39690161,-0.17019121,1.51115215,-0.62931389,-1.51148975,2.26836538,-0.24686389,-0.30181918,-0.6283831,0.01989448,0.67031354,0.8120324,-0.15979664,-0.22205926,-0.34110856,-1.53561246,-0.24642156,1.15440941,-0.80614454,-0.27285233,-0.50838816,0.10215754,-0.53973466,0.10621979,1.15574026,-0.29059771,0.162219,-1.61432922,0.11631143,1.14387703,-0.0616494,-0.0514972,0.12234512,0.28390035,0.39207745,-0.01247123,0.74808234,-0.28469184,1.12706792,-0.43178153,-0.82732964,0.79911447,0.3654274,-0.03721487,0.07267218,-0.15200527,2.3454814,1.55711877,-0.05135721,0.59173614,-1.21732616,-0.52693671,0.45176983,-0.23707788,-1.90427315,0.42100883,0.11898825,-1.51422465,0.04215818,-0.04674359,-0.97731763,0.60193163,0.57612151,-0.11334649,-0.20853569,0.46729174,-0.41537055,0.09048158,-0.52526146,-1.4628042,-1.6638726,0.1922217,0.12119643,-0.85390049,0.66666985,-1.00703442,1.33830976,0.89002919,-0.78446579,-0.17707451,0.08708525,0.59690547,-1.02611661,-0.93947035,-0.98956174,0.7327072,-0.85237283,-1.99019468,-0.63943136,-0.74277312,1.83076847,-1.6636678,0.52267498,-0.15634258,0.06286278,-0.60845393,1.81278324,-0.43471611,0.44590548,0.66063613,-0.37602237,-1.18944263,-0.66036266,-0.06695246,-0.15763767,-0.02605193,-2.26872993,0.46528003,-0.44074619,-0.91998577,1.5672574,-0.77877975,0.64300197,0.62626898,1.05529118,-0.25456735,0.22258632,-0.63282782,-1.03217781,0.20900963,-0.22997127,-0.09823111,0.20231633,-0.373974,0.28000352,0.68224448,-2.45120645,-0.97556973,1.18480098,-0.51483709,-0.49244007,0.61207587,-0.22242701,0.3396987,-0.39182678,-1.14133346,-0.11776114,0.86400461,-0.44845486,1.2791301,-0.90412688,-0.35195708,-0.03024535,-0.73990077,0.26133847,-0.2345653,2.0499258,0.18457796,0.57026678,-0.59743375,-0.77786607,-0.53170055,-1.3864485,-0.45465723,1.40596581,-1.05884016,0.78110629,0.01251982,-2.24522114,0.0952613,-0.37892899,0.08707567,-0.69366449,-1.47987187,-1.11762249,0.72793436,-0.29324484,-0.52066821,0.02427153,-0.03281808,-0.30649912,1.31608641,-0.43942949,0.55199218,1.18254006,-0.38575447,0.73736459,0.79945755,0.47389868,2.44518638,-0.26409587,-0.58168119,0.08313276,-1.36619723,0.56139201,2.04114366,0.67204505,0.17168023,1.12642395,-1.39214849,-0.41414475,-0.42355642,-1.52536404,0.25475362,-0.71089035,0.52172363,-0.78995723,-0.00319029,-0.94241744,1.23690653,-0.76076865,-0.43690655,-0.16152543,0.55640823,0.3825942,-0.60961348,-0.92085856,-0.4728812,0.64185721,0.49326944,0.3753598,-0.07862239,0.43289733,-0.85857159,0.22651275,0.66174597,-0.34987426,0.87549061,0.50487304,-0.19876562,0.23107354,1.43626881,0.2774643,0.68595618,-0.11798433,-0.70228595,-0.10785545,0.11642263,-0.9000299,0.46080315,0.88640887,-0.71148109,-0.79210418,-0.56439561,-1.29639649,0.18407573,-0.64344656,-0.225188,1.63955343,0.83861929,-0.22640969,0.60513389,-0.95834947,-1.16435373,0.66536772,0.66680664,-1.05128229,0.28117797,1.01595664,-3.21458435,1.1091311,-0.65833986,0.32307622,1.24067366,-0.46622932,1.87075841,0.29012051,0.97490048,-0.86495775,-0.03428546,0.07454837,0.57591343,1.23521924,0.67277843,0.72218472,1.94464791,0.33214486,-0.48906645,-0.27851582,-0.08863684,-0.08434933,1.05364168,1.19125676,-0.47585079,-0.44329217,-0.69796675,0.98417974,1.57287979,0.67841297,0.03650033,-0.48321509,-0.07648385,0.43433866,0.63812351,0.51720423,-0.16029309,1.79650247,0.50181442,-0.42434815,-1.83946991,-0.5849871,0.23449798,0.57807952,0.64224815,-0.43141404,-1.17862737,0.83346587,0.56240392,-0.10660807,-0.22836174,-0.63770157,0.92202097,0.65108734,-0.75872475,0.29798368,0.25330126,-0.72613353,-0.1215206,-0.99454802,-0.21499072,-0.75062889,0.75431126,0.08611771,-0.23060022,-0.85963106,-0.45692,0.56978911,0.77302426,0.66428238,-0.63810724,0.18651725,0.25900587,0.81370336,-2.47254324,-0.60604459,1.07593656,-0.44406477,0.44733498,1.62438452,-0.17460991,0.89440471,-1.88014638,-0.34378242,-1.47972202,0.42394379,-1.24129379,-0.50340855,1.79978657,1.39139879,-0.48045465,0.3034505,0.39650822,-0.66930008,-1.50711215,0.4685764,0.20567711,0.35165998,-2.09835219,0.17532746,0.14950177,-0.90115887,-0.39975667,0.97662383,0.34194759,0.24152696,-0.42834702,0.90345287,0.61567754,-0.04609224,0.87835592,-0.93504828,0.03004523,0.8362481,-0.36336747,1.10501397,-0.87418705,-0.76859426,0.5236885,0.71831393,-0.09387443,-0.19973291,-0.87212473,-0.40960467,1.49446118,-0.87088078,-1.71567762,-0.10094855,-1.0662123,-0.64656043,2.01920152,0.99253607,0.02553604,1.42914104,0.95360786,0.71041512,0.58925915,2.75312996,1.49388313,-1.23743737,0.95301384,0.02900064,0.11502925,-0.65342087,1.09978843,1.19445908,0.65176821,0.83574766,0.09178603,0.01071361,-0.50574464,0.88208526,-0.32342884,0.37185979,-0.42229116,0.88273507,0.43579856,0.45101345,-0.27462444,0.60547429,0.0524033,0.47815537,-0.0541369,-0.10752698,0.9257372,-0.79270297,-0.25799301,0.23798476,1.421929,0.06130223,0.6379903,-0.60860354,0.20302017,-1.69757617,0.17913212,-0.03889295,0.53252441,-0.65386194,-0.82191461,-0.11595819,0.86473507,0.38865885,1.61889803,-0.2843385,0.95621258,1.42652798,0.01838273,-0.89744216,-0.46485767,0.33192348,0.10804794,0.17062652,-1.3190161,-0.1184217,0.33956137,-0.93817264,-0.29236028,0.72067237,-1.03064001,-0.67695409,2.26233101,0.25213352,-0.9000721,1.28118742,0.16997302,-0.73201054,0.50574082,0.72090191,0.0483784,0.05689712,0.7111699,-0.18863879,1.86570644,-0.11186623,-1.39098167,-0.81910294,-0.97676134,1.41837347,-1.00687265,0.41735435,-0.70870954,-1.92571795,-0.55787921,0.43775705,0.3109329,0.27932176,-0.78315336,0.2330749,-0.21230747,-0.58010668,1.01038682,0.53057486,-0.69701856,-0.6240837,1.00183856,0.41518593,1.94856822,-0.97356206,0.75101703,-0.80373901,-0.38511756,0.29806992,0.05474795,0.81521612,0.21185498,0.4013443,0.5869422,0.00626548,0.70462132,-0.84998852,-0.42614079,-0.16152637,-0.00132583,-2.21559048,0.76272869,-1.09501195,0.29679948,-0.54893398,-0.43532276,-0.00965352,0.53906035,0.3933439,-0.1088298,-1.25623548,-1.58331907,-0.46910051,-0.58864427,2.65542245,-0.91788489,-0.67112082,-0.39958581,-1.78895044,1.72927439,0.53007424,1.30843365,-0.63388532,0.62704223,0.03166004,0.31046334,0.73591614,-0.54588145,1.01688159,-0.55217105,-1.12413776,-0.20376997,-0.61598533,-1.69311631,0.01101773,-0.4866645,-0.30866978,0.38464713,-0.10449785,-0.94434315,0.64307433,-0.02456576,0.03874509,0.43518078,-0.74495906,0.30246255,2.78964734,0.03961072,1.35666811,-0.225962,-0.8902629,-0.44814536,0.3035439,-0.0559624,0.91377306,-0.54137576,-0.3280828,-0.37967137,-1.66298997,0.22824585,-0.87323493,-0.5375185,-0.49057773,0.8093769,-0.31162095,0.43125263,-1.60356009,-0.33644298,-0.23930937,-0.44521973,1.2785176,-1.0804528,0.34367895,0.13258637,-0.32677111,1.37206638,-0.44971049,-2.526e-05,-0.41454086,0.46935764,-0.10685655,0.1032206,1.39625728,0.02217065,0.26400724,-0.27233681,1.09112871,-0.9489091,0.50149184,0.12552463,1.17338932,-1.31439316,-0.3184742,0.44518927,-1.32709777,-0.16142882,-0.86622375,-0.73212057,-1.09213626,-1.50533259,0.01552972,0.41863838,0.48541436,0.82631016,0.93436772,0.5694961,0.7008605,3.66849804,-0.74934036,0.37904549,1.09540761,-0.52036363,0.56349134,-1.48762178,-0.06755272,-0.60402578,1.83019781,-1.2378099,-0.05864331
产科专家	-0.68902546,0.21657221,0.34000754,0.14529704,0.4249467,0.27497566,-0.31658712,0.28609565,-0.8827551,0.12300507,-0.58146417,-0.3169179,-1.00206673,0.12115409,-0.43013301,-0.54578942,0.13752551,-0.86176139,0.89881855,0.65589672,-0.81122559,0.36659488,0.05107519,-0.12124789,-0.33220384,-1.03390145,0.80739146,0.01665113,-1.07285273,-1.10836828,0.52638549,0.65447181,1.21347725,0.12561834,-1.02235985,-0.61641473,-0.17323698,0.40318859,-0.99065048,0.82184201,-0.27209207,0.490863,0.7559641,-1.23197424,-0.46367618,1.09868193,0.4175078,0.53715295,-0.66640145,-0.64912719,0.00761774,0.86445457,-0.32990178,2.12447143,-0.1085965,0.38581488,1.29157209,-0.05020264,0.23768802,-0.21480972,-0.17782332,0.17072476,-0.85037237,-1.42883956,0.60083926,-0.02751105,2.09230638,0.30479342,-0.63711089,0.2953628,1.27280676,-0.16491234,-0.43380955,0.71909356,-0.37929586,-0.09005442,-0.26715797,-1.72857106,-0.12903433,0.6965642,-0.29168704,-1.40651894,0.33137414,-0.12628195,-0.94199795,0.99127644,-0.63218862,-1.51826894,0.26908824,-1.44944322,1.58346355,-1.48551321,1.12297022,-0.64293855,0.5455265,0.37927243,0.50611496,0.96295089,-0.81479937,-0.38225555,-1.66840899,0.03781221,-0.97596216,-1.31824648,1.3237654,-1.65568483,-0.96744847,0.81747037,-0.356433,1.58607972,-0.33519575,-1.28321767,-0.71047235,0.33719096,-0.85775298,-0.05472112,-0.31668654,0.59223586,0.26576525,0.97943902,0.20299017,0.48509672,-1.00896299,-0.84165543,-0.42735279,-0.83910179,0.22796601,-1.99422848,-0.99012464,-0.79613429,0.12191087,1.58474052,-0.13027318,0.32172558,0.62690592,-0.46095118,-0.57089907,0.50107521,0.72535747,-0.11757847,-0.0135618,0.05860189,-0.02665471,0.4737086,3.05296707,0.34332931,0.88024253,-0.49694517,-0.19532169,1.457376,-0.6985724,-1.4912051,2.25384736,-0.1681854,-0.26884869,-0.65867674,0.01085396,0.56786764,0.74740291,-0.18542467,-0.22864412,-0.33468166,-1.5444212,-0.31192043,1.22708035,-0.70587111,-0.28243044,-0.49172279,0.15661444,-0.51509452,0.0947632,1.31213105,-0.28956333,0.21833861,-1.60255098,0.12949556,1.17136836,-0.09600357,-0.0677581,0.10856047,0.30004141,0.36554626,-0.08637366,0.74764329,-0.38365683,1.22398293,-0.46450159,-0.7719093,0.72771865,0.36585423,-0.03912168,0.05372332,-0.19984694,2.22023368,1.5765518,-0.03037982,0.5389114,-1.16943669,-0.54691076,0.41133723,-0.21985959,-1.9988178,0.43668032,0.1712452,-1.45790851,0.0472385,-0.04180869,-0.9391315,0.60466611,0.59412688,-0.09032416,-0.29527223,0.45522246,-0.33356977,0.09489662,-0.4656533,-1.42408764,-1.64529181,0.21113013,0.11481609,-0.83270198,0.70134139,-1.01299846,1.37904835,0.86848396,-0.71697235,-0.148606,0.04996291,0.5664351,-1.02342892,-0.88331872,-0.91404706,0.68596888,-0.86882836,-2.1031065,-0.70927113,-0.80450702,1.84299004,-1.671193,0.52917188,-0.15778488,0.06168929,-0.65848762,1.81782818,-0.46624747,0.43487859,0.64755815,-0.2889055,-1.19008958,-0.62798637,-0.11047939,-0.22425528,-0.02540039,-2.33245921,0.45926026,-0.42894796,-0.94026184,1.60927677,-0.74228686,0.64724272,0.6748932,1.06235254,-0.29504001,0.23875551,-0.63264966,-0.98851752,0.25504607,-0.2100727,-0.1404603,0.24589361,-0.41370595,0.28920284,0.76815575,-2.39489841,-1.029212,1.20818412,-0.52210313,-0.50926149,0.59111828,-0.23054905,0.35683855,-0.38642696,-1.10347807,-0.13433681,0.80589229,-0.36848107,1.2666434,-0.83098263,-0.3877703,-0.07984378,-0.73315603,0.18798465,-0.22597128,2.11345387,0.16091755,0.57426536,-0.6004054,-0.78547913,-0.50856292,-1.30350399,-0.54863435,1.22053838,-1.15542161,0.80396581,0.04234144,-2.35351205,0.0886384,-0.36728108,0.08270269,-0.64666873,-1.48503208,-1.02387321,0.71890169,-0.27347898,-0.45612177,-0.01876939,-0.05705783,-0.32288989,1.29388392,-0.41499773,0.43312153,1.11322987,-0.35948184,0.76577574,0.6557917,0.44433221,2.34888315,-0.25395873,-0.62398094,0.07731936,-1.40203905,0.52750391,2.0617981,0.68089032,0.2479163,1.06693935,-1.3479414,-0.4450804,-0.4302642,-1.53437912,0.33513895,-0.64477605,0.52343649,-0.75734431,-0.03235929,-0.95257401,1.21857429,-0.77503282,-0.42448857,-0.25570449,0.46508095,0.41363439,-0.49980173,-0.93257517,-0.50993085,0.65537935,0.41340455,0.41116396,-0.02170655,0.41077378,-0.8506183,0.19279639,0.64285976,-0.35086358,0.90051007,0.41054371,-0.19403435,0.20828508,1.4358331,0.22747363,0.75981951,-0.14519329,-0.60576713,-0.11987793,0.122929,-0.90309787,0.53428555,0.9003945,-0.67048293,-0.83284855,-0.4717519,-1.23588192,0.12511688,-0.65369171,-0.2940436,1.67354834,0.77030581,-0.28909031,0.53198218,-1.0241394,-1.21069098,0.60790986,0.67814684,-1.03345573,0.27725431,1.04463255,-3.1893549,1.11080611,-0.72076935,0.25329688,1.23618424,-0.52625483,1.87963283,0.28599861,0.96382874,-0.85815328,0.03190212,0.16425839,0.58946377,1.10985446,0.75500876,0.68164867,2.06109118,0.29938006,-0.47409809,-0.3038426,-0.03740751,-0.02375173,1.14349532,1.11067832,-0.46016952,-0.39855823,-0.72976321,1.04565632,1.55810642,0.68801832,0.06063351,-0.46828911,-0.12684502,0.48004258,0.62178093,0.51874489,-0.16255982,1.79159939,0.48842284,-0.43439773,-1.90272093,-0.60580772,0.18804754,0.62970316,0.58218431,-0.4209466,-1.14646482,0.8341257,0.67852789,0.03865713,-0.18816201,-0.67283052,0.92589837,0.64105034,-0.75844222,0.29791951,0.30211529,-0.7508505,-0.1054129,-1.03030455,-0.28052607,-0.80117846,0.5671699,0.18510385,-0.23699929,-0.76529121,-0.44950354,0.51277834,0.86498523,0.55665469,-0.66840315,0.15336789,0.24815901,0.79226971,-2.32693863,-0.63888019,1.05164158,-0.46566764,0.4260093,1.64450073,-0.13013797,0.85424024,-1.86001933,-0.34952703,-1.4626292,0.40727547,-1.24276841,-0.46897745,1.8243798,1.49824154,-0.41559848,0.2854014,0.39429903,-0.67581874,-1.52921331,0.4611944,0.23158567,0.36864248,-2.03383851,0.1414579,0.16183017,-0.88671869,-0.48696184,0.97363657,0.30311969,0.30511847,-0.4852654,0.90438479,0.6004107,0.00026888,0.9032743,-0.92576098,0.02718364,0.8956635,-0.27438334,1.12635553,-0.94364071,-0.79875857,0.44902202,0.72743601,0.01170705,-0.19820988,-0.8761425,-0.3872838,1.55136549,-0.84852141,-1.6869899,-0.20529656,-1.10040092,-0.62585801,2.01280022,1.02242601,0.04957495,1.44007242,0.90929145,0.69633693,0.618514,2.73213935,1.6029954,-1.20057023,1.02926362,0.0195207,0.1222848,-0.66141671,1.06108606,1.21765459,0.64742666,0.79934806,0.08676796,0.03291212,-0.51824421,0.85103279,-0.36515298,0.45541191,-0.42052928,0.88156384,0.3029137,0.35674646,-0.19305944,0.56392443,0.05168629,0.47558036,-0.0564853,-0.0803518,0.96558219,-0.84046894,-0.287368,0.24086912,1.44964373,0.03207467,0.7683847,-0.64436716,0.20709734,-1.70831442,0.21453722,-0.03738785,0.4801974,-0.65195626,-0.77382857,-0.11034914,0.85752696,0.38714829,1.54790354,-0.16381873,0.9322384,1.40680945,0.06080988,-0.83186382,-0.44270089,0.33807683,0.14494096,0.18585511,-1.17461598,-0.06811642,0.51433676,-0.89741158,-0.24379633,0.7509656,-0.97357315,-0.7416873,2.33875394,0.19660424,-0.93845397,1.25612819,0.22505681,-0.63819283,0.47759926,0.77524823,0.07844212,0.10350116,0.70871592,-0.20199053,1.82373953,-0.1452893,-1.41058385,-0.79213637,-0.98736471,1.46729565,-0.99897414,0.41269258,-0.71735412,-1.97338724,-0.537687,0.45076576,0.2963917,0.26214358,-0.67613173,0.26434019,-0.21771924,-0.5497058,1.05999005,0.48140118,-0.76121801,-0.62057978,1.04064822,0.37008938,1.91999054,-0.96775836,0.68204373,-0.75041485,-0.38432097,0.29430968,0.06442048,0.81528234,0.18069522,0.44872388,0.54608065,0.02778537,0.65619314,-0.77838475,-0.43183324,-0.15051264,0.06841322,-2.26692605,0.74669856,-1.11119592,0.3624377,-0.54206568,-0.42604503,-0.03075348,0.58211422,0.42850336,-0.11048349,-1.33159482,-1.50407541,-0.43058041,-0.56269675,2.63963723,-0.94641256,-0.66007859,-0.4099308,-1.74008024,1.70991004,0.45372173,1.2990309,-0.68088293,0.63126057,-0.03503006,0.32188043,0.72644329,-0.61368793,1.00882852,-0.58778125,-1.17767572,-0.143638,-0.65070295,-1.62832201,0.07474384,-0.51002699,-0.31078687,0.3746601,-0.16092253,-0.96330291,0.64119929,-0.05780583,0.07868347,0.42817137,-0.74027491,0.35002673,2.83734989,0.02768533,1.37567341,-0.18693595,-0.84725946,-0.38857555,0.31023619,-0.02694816,0.86685127,-0.60768515,-0.31825677,-0.36444822,-1.67905056,0.23614804,-0.91496545,-0.56948107,-0.57256109,0.926709,-0.27725485,0.48666087,-1.55328667,-0.28119537,-0.27280736,-0.50148422,1.26494062,-1.0272938,0.40071261,0.15670289,-0.36480853,1.37646055,-0.49454942,-0.01121092,-0.47002819,0.49561539,-0.10486502,0.12291525,1.42039263,0.01910921,0.2295479,-0.27726433,1.0497514,-0.95923072,0.49443135,0.12683479,1.21109998,-1.39126146,-0.3322987,0.3593812,-1.36311817,-0.19919379,-0.8630504,-0.72964019,-1.0441376,-1.47198689,0.01436263,0.40192354,0.47751498,0.87577516,0.94500476,0.52707583,0.73703867,3.72925186,-0.77022195,0.38963947,1.06795704,-0.54502779,0.56060266,-1.533131,-0.07859871,-0.61488146,1.83635843,-1.27743566,-0.03213993
产科主管	-0.35250151,0.57009435,0.761518,0.31339878,0.31877181,0.34602836,-0.24065834,0.28262004,-1.87946665,-0.09459558,-0.52807051,-0.05238381,-0.94890714,-0.10520714,-0.78317857,-0.23762028,0.11963931,-0.73165774,0.62563437,0.71470529,-0.98179078,0.39759135,0.09334376,-0.2067052,-0.08937133,-0.29307973,0.75995499,-0.01980536,-0.73234421,-1.40331745,0.44175687,0.54991525,0.63191456,-0.13694537,-1.16064417,-0.74882573,-0.93924975,0.52790099,0.01075888,0.7769025,0.00457497,-0.19653571,1.01610029,-0.3486892,-0.4426544,1.32435608,0.64450389,0.45149806,-0.87906426,-0.35828602,-0.40664032,0.5105722,-0.41513744,1.87958968,-0.45724317,0.45045593,1.60955012,-0.00307556,0.0802324,-0.49309289,0.22075374,0.20148695,-0.80414504,-2.16577816,0.43784139,0.17444424,1.61852896,0.47691289,-0.73012453,-0.05431039,0.6056909,-0.42954603,-0.44529581,1.4011637,0.25583819,-0.58777773,-0.2427123,-1.33183646,-0.32511732,0.76575321,-0.28864175,-1.41672134,0.48140749,-0.45475292,-0.80648524,0.75650567,-0.25647151,-1.44786847,0.44291043,-0.563788,1.85818446,-1.57664526,0.83284515,-0.40756246,0.82592559,1.03836668,0.46338141,1.07399976,-0.69213074,0.11167096,-1.64895391,-0.30662653,-0.71102208,-1.42654932,1.38565826,-1.20338392,-1.35920286,0.21897429,0.09647691,1.10766613,-0.430361,-0.91101027,-0.80052656,0.25878644,-0.89561749,-0.23616104,-0.4913753,0.51858038,1.09719765,0.23713781,0.46567556,0.47962907,-0.30213287,-0.89618462,-0.35275316,-1.01804459,0.23481388,-2.11487937,-0.27421743,-0.99335676,0.2774865,1.56236458,-0.16994937,0.49360266,1.00405765,-0.54042035,0.06882167,0.46588039,0.37508419,-0.4907043,0.52128166,-0.04271339,-0.17917782,0.31314561,3.29629683,0.19495124,0.49139562,-0.4342587,-0.12726386,1.62085211,-0.96085167,-0.68467617,1.73564589,0.50036752,-0.34949017,-0.55966371,-0.25629774,0.36762595,0.29567021,-0.67396188,-0.06104438,0.23725013,-1.53054953,-0.08316675,1.8526783,-0.04349239,-0.43125406,-0.7621457,0.92400265,-0.57085967,-0.19654357,2.11101794,0.03605,0.73758739,-1.5158695,0.53698134,0.76305169,-0.02852533,-0.04789172,-0.26720694,0.62584698,0.54204208,-0.22264706,0.98810893,-0.73849601,1.55563545,-0.43978181,-0.59584647,1.25731301,0.60608751,-0.22319746,0.45193717,-0.08652215,2.33086324,0.81001836,-0.28081036,0.19794963,-0.66792268,-0.07155756,1.20299256,0.14211945,-2.56932521,0.27332956,0.52819133,-1.33440745,0.08118612,-0.23497319,-1.21559143,0.63698322,-0.07656354,-0.15028226,-0.48243448,0.39981899,0.17219369,-0.01022709,-0.55016381,-0.81446505,-1.37366343,-0.28872499,0.34015694,-0.74555659,0.430159,-0.55255461,1.4468106,0.9207527,-0.29155982,-0.43468758,0.06336673,0.48546109,-0.89208442,-1.61110973,-0.89976573,1.55801332,-0.25362226,-2.2807827,-0.53203827,-0.44728005,1.53716409,-1.43872976,0.4359864,-0.130007,-0.03017776,-0.7973032,2.11078215,-0.8550036,0.85700613,0.98241401,-0.28580731,-1.35959053,-1.69666159,-0.41248095,-0.33853865,-0.07710311,-1.53377211,0.12700959,-1.23503959,-0.96373838,2.04435062,-0.18120538,0.83835888,0.37911722,1.5574888,-0.23032303,0.07422706,-0.27402666,-0.43881217,0.39075264,-0.0767827,-0.78061038,0.41903099,-0.44384465,0.36824825,0.93050009,-1.78471553,-1.01700509,1.42933178,-0.51966518,-0.46262631,0.36204752,-0.27500015,0.37207255,-0.34349334,-1.54168236,-0.05092442,-0.04279397,-0.32569185,1.80366743,-0.57552749,-0.54608291,-0.02863935,-1.09353852,-0.22493726,-0.56310278,1.84735489,-0.2009753,0.39248481,-0.71635705,-1.23666596,-0.50199449,-1.82427275,-0.77392507,-0.36921954,-1.30734122,0.72006899,-0.34710574,-2.40927911,0.08409765,-0.25479928,-0.18206483,-0.55212456,-1.24470234,-1.24717045,0.29053244,-0.16104481,-1.04283583,0.05456099,-0.04867448,-0.45961639,0.99574304,-0.05653233,-0.35448405,0.39242363,-0.38958946,1.1092025,-0.31587136,0.15977891,1.06202161,-0.03962716,-0.75945187,0.17785685,-1.10537446,0.23365952,1.81011152,0.08773226,0.40674815,0.93484026,-0.42988503,-0.09427971,-0.72628689,-0.90941435,0.12229145,-0.27735764,0.00524376,-0.53253514,0.00316166,-0.78257853,1.28639615,-0.8903504,0.02840535,-0.50409204,-0.52796,0.42497006,0.01562005,-1.38043559,0.21415915,0.70196849,0.73059899,0.38793293,-0.44664466,0.03892991,-0.21683991,-0.01257177,0.60225838,0.33985433,0.71862847,-0.17032044,-0.27010396,-0.10932826,0.68746942,0.4538714,0.95018846,0.34334245,-0.56256109,0.03730983,0.31458417,-0.78715426,0.62648433,0.98442769,-0.89785504,-1.5813936,-0.32401916,-0.37001562,-0.07163296,-0.3268365,-0.96741319,1.59941423,0.49098742,-0.19334666,0.59227222,-1.2856046,-1.65119898,0.47295538,0.68051028,-0.74905366,0.21485533,0.8914116,-2.99136662,0.93958282,-0.75014359,0.08425387,0.90401632,-0.41866842,1.72837508,0.05554905,1.08428705,-0.30284795,0.01338751,0.23024081,0.41391644,0.77970845,0.64543754,0.20069958,1.98829901,0.59742337,-0.33577982,-0.32256049,0.15660317,-0.03622792,1.10036802,1.41039836,-0.38322011,-0.10592758,-0.62676841,0.82366449,1.86434698,0.79077959,-0.13589452,-0.64960879,0.23386164,-0.08435428,0.29130813,0.68092126,-0.04575474,1.1192224,0.56771821,0.32482967,-1.84225762,-0.55258614,0.60424423,0.81247497,0.26345143,-0.54189676,-1.10439885,0.2247404,0.8020699,0.37766007,0.34972599,-1.21028912,1.17087352,0.21813701,-1.36970127,0.46739462,0.19401003,-0.94089413,0.41361976,-1.4726553,-0.36695161,-1.13715518,-0.51182216,0.14596896,0.02707887,-1.09875643,-0.48029268,0.22445635,0.99799174,0.43493024,-0.72853917,0.03516614,0.03146255,-0.69432515,-1.06860125,-0.89395911,1.24536145,-0.29968986,0.46366766,0.98776597,0.37793717,0.70975477,-1.57300127,-0.37902197,-0.99633336,0.25235501,-0.28809574,-0.55877316,2.15310478,1.50445521,-0.00705023,-0.1052785,0.31031305,-0.61053413,-1.2465601,1.03376138,0.53283542,0.00896349,-1.24255764,0.19894183,0.04445313,-1.10341597,-0.43681726,1.13867188,-0.2247072,-0.04240702,-0.84699172,0.85411644,0.06448451,0.35804281,1.12602055,-1.12145603,0.27832648,0.69942719,-0.21168081,1.71707284,-1.04202735,-0.61394507,-0.6594153,0.92497486,-0.06987425,-0.31141499,-0.73000288,-0.34948084,2.35145783,-0.85375428,-1.43710184,-0.10120303,-1.03970551,-0.27490154,2.13024521,1.11170471,0.40343904,2.02131391,0.93588144,0.34442887,0.52813619,2.14838099,1.02728486,-1.31907284,0.32552221,0.04180185,0.10202084,-0.34991324,0.55303687,0.96264243,0.51858491,0.12096336,-0.17204504,0.46254766,-1.09845722,0.28956923,-0.82301551,0.93880224,-0.41499177,0.45790601,0.53459102,-0.33334163,-0.01001005,0.33289671,0.07217791,0.45612428,-0.50183499,0.02346528,0.8059023,-1.03039086,-0.1152179,0.48040557,1.86004579,-0.2662355,0.27836704,-0.02470954,0.02874728,-1.02777636,0.09521809,-0.09493855,0.50010389,-0.47405899,-0.19294004,-0.02081882,0.1688145,0.45900798,1.6765312,-0.35438654,0.94384271,1.22692788,0.07696063,-0.43413249,-0.39380154,0.63152814,-0.16960655,0.14298619,-0.2516551,0.03681013,0.47878399,-1.46435583,-0.20213257,1.54493475,-0.668369,-1.70052016,3.08976865,0.23144329,-0.71999592,1.00976944,0.82462001,-1.14821482,0.26973978,0.87259787,0.49510869,-0.12566096,0.83498067,-0.13889836,1.79496336,-0.17192842,-1.23958337,-0.82738876,-0.94742614,1.82423353,-0.93908089,0.12881537,-0.88417214,-1.65605533,-0.51364976,0.44825533,0.87716931,0.15700935,0.24481966,0.4552699,-0.23226278,-0.48317751,0.84059352,0.69685602,-0.6552062,-0.53950518,1.93970931,0.28866062,1.06085491,-0.61888462,0.937922,-1.22578967,-0.06114974,0.4190841,0.01476854,0.89642888,0.13952564,0.49359322,0.177983,-0.2425987,0.93438774,-0.59150392,-0.54578954,-0.04021273,-0.15830307,-1.69582856,0.41002837,-0.30030254,-0.06680761,-0.60115165,-0.38911939,-0.62404495,0.44667837,0.87315321,-0.17375453,-1.18685973,-1.42405832,-0.30354193,-0.35677943,2.44620872,-1.1182946,-0.6288231,-0.59889561,-1.04365265,2.47264647,0.36277041,1.05939019,-0.79910058,0.21094634,-0.16001557,0.14180286,0.99699932,-0.88310909,0.85418433,-0.74355346,-0.62052965,0.2543951,-0.40965712,-1.72476733,-0.15883225,-0.71561909,-0.18663697,-0.06365807,-0.47531319,-0.86501676,0.67938656,0.38543689,-0.39758313,0.44895115,-0.62114221,1.15898609,3.36862445,0.06688827,1.39651382,-0.50995696,-1.21532047,-0.08350525,0.81187242,-0.28149751,0.63507545,-0.42527238,-0.47620487,-0.49358702,-0.86156768,0.30421108,-1.17917967,-1.23624158,-0.82138091,1.67202282,-0.10886496,-0.01099769,-1.01655042,-0.70114475,-0.40635267,-0.52574551,0.98828775,-1.36802387,0.23557718,0.12214478,-0.39408323,1.36421645,-0.71384001,-0.3051863,-0.33121103,0.84282297,-0.11926904,-0.14345889,1.44495487,-0.1571492,0.43052348,-0.19920389,1.27075994,-0.76397365,0.58281761,0.18173641,0.87939614,-1.66661489,-0.59842443,0.82227677,-1.12628138,-0.49991205,-0.78893852,-1.07430422,-0.59310061,-1.22409344,0.47507441,0.53666812,0.67210692,-0.15842201,0.78667665,0.58797354,1.03388584,4.19283962,-0.65762919,0.12748459,0.88821381,-0.42387453,0.7842558,-2.66394734,-0.18276171,-0.78605729,1.46673214,-1.41252851,0.07311285
筛选员	-1.0780015,0.15388887,0.41034532,0.08922611,-0.39299053,-0.00654141,0.31040558,0.54526907,0.92227995,1.48406434,-1.33898485,0.00522195,-0.32140142,-0.1789536,-0.69360435,0.98145187,-0.18867724,-0.43967837,1.01688123,1.60143781,-0.8472541,-0.69057477,-1.02765357,0.20483689,-0.13944171,-1.45796645,0.53501809,0.51087129,-0.84396136,-1.32597077,0.14379461,0.58750659,1.71335292,0.63950014,-0.15878329,-1.01003301,0.08347505,0.34253126,-1.45230258,1.10768533,0.60451525,0.60964632,0.20374945,-1.97085643,0.35543072,-1.19205022,0.28491277,0.72720373,0.11198634,0.88217199,1.71628535,0.91354692,-0.69842732,1.18162155,0.4410719,0.5111497,-0.55582482,-0.16078423,0.49686155,1.13382876,1.05025136,0.20053872,-1.60290504,-1.21939373,1.13666511,-0.55039978,0.60555011,-0.02698982,0.2886433,-0.41735467,0.46738276,-0.47032261,-0.30398944,0.17594659,-0.71131343,-0.65112734,1.45819497,-0.53748316,-0.04174692,0.5690397,-0.65226007,-0.24270794,-0.25011057,-0.8728984,0.68301672,1.1108284,-1.03570187,-0.94248837,0.15040222,-1.83486521,-0.11844075,-0.15288757,0.58163393,-0.82037562,0.0401902,-1.43113828,0.89473522,0.23132136,-0.87584668,-0.25259334,-0.68945521,-0.77086079,-1.58551562,-1.75182974,0.99334705,-0.88086051,-1.71057737,0.28546673,-0.28652623,1.54071617,-1.05188823,-1.04458594,-1.00536156,0.09165841,-0.15443411,-0.22571859,-0.59150016,0.24134234,0.54713631,1.77894878,0.22129111,0.68519688,-1.70669115,-1.12688947,-0.57851887,-0.94525337,0.96451378,-0.6088987,-2.48066092,1.05137467,0.0626965,1.18172204,-0.56430709,-0.05148092,0.40210739,-1.01188946,-1.66296363,0.50018489,-0.01115893,-0.01600495,-0.57591099,0.75123668,0.18742979,0.47877589,1.09715295,-1.83651388,0.80647564,-1.34694886,-0.36612329,2.00219989,0.22182766,-0.88575041,1.31845844,-1.63789272,-0.5237394,0.0713547,1.27464128,0.0186215,1.5009464,-0.16007547,-0.17393866,-1.01029778,0.51774931,-1.00082755,1.664469,-0.541273,-0.2857967,-0.66512841,0.74841744,0.97604418,-0.98167342,0.56919128,-0.79295957,0.20652747,-0.89245832,0.44301453,1.60298955,-0.087662,0.42620581,-0.37074786,0.75118649,0.93266869,0.31167331,-0.20516773,0.60633481,1.1596117,-0.20086984,-0.2194899,-0.99361193,0.40585884,-1.02511287,0.38836271,0.35743362,0.51358289,0.45564699,-0.38168782,1.18136299,-1.86438918,-0.63030863,-1.1493628,-0.13069914,-1.31368554,0.36457509,0.95261109,-1.42510581,0.3391183,-0.57942927,0.33478063,0.05019903,1.20305812,0.12282513,0.29082423,0.49883071,-2.14185071,1.05139315,-0.36512184,-1.85522747,-0.14997084,0.75225246,0.16682997,-0.62191647,0.13568893,-1.44296813,0.21467189,0.26635844,-0.83093226,-1.1101166,-0.00530902,-0.56132364,-1.08700037,0.41533247,-0.58699995,0.81601441,-1.19592059,0.68346214,-0.52279407,-0.08177502,0.46555948,-0.81772244,0.77585393,0.53257287,-0.08015043,-0.76188946,0.51939613,0.17403114,-1.80500865,0.30675447,-0.46115828,-0.89875317,0.89470845,-0.51795787,-0.29150283,-0.20532386,-1.15589035,0.66269922,2.46122122,-0.11157276,0.72507912,0.3835018,-1.51955116,-0.44907436,-0.78201783,0.25178224,1.77348483,-0.13223502,-0.30865499,-0.50579405,-0.14185762,1.33828735,0.8591283,-0.19095805,0.8145231,0.67303944,-1.44208181,-1.13966119,0.88958395,-0.86384904,-0.28672782,0.72055358,0.5607971,-0.12145116,-0.84239578,-0.27617311,0.02833306,0.80923957,-0.18242072,-0.14179777,0.09880599,-0.27150607,-0.87597191,1.44038415,0.27495632,0.59794271,-0.42897111,0.24648547,0.62833303,-1.09262979,-0.08989348,-0.03979234,-0.56810188,-0.07532232,0.79916555,-1.11419272,0.53421062,-0.88652039,0.40513569,0.64399445,-0.52212322,0.57553852,-0.35380745,-0.81796157,-0.90455073,1.76119542,0.18787345,-0.33744782,0.68111986,-0.08788337,0.16905081,1.08197916,-0.01743075,0.38095552,0.78493887,0.16672988,1.3395524,0.72731316,0.74712402,1.06134427,-0.30939204,-0.14475699,-0.24858613,-0.44994068,0.60914522,-0.19982143,0.11893065,1.80915892,-0.48782888,-0.51360416,-0.78389138,-0.80015594,-0.80178213,-0.00875416,-1.08563435,1.52120221,-0.11527566,-0.05967937,-0.32761064,0.66785204,-0.50902718,-0.18144916,0.21961761,1.96980286,-0.32007879,-0.09602965,-0.15331689,-1.25022256,0.79527247,0.73808897,-1.24217892,0.6572243,0.35659301,-0.56147206,0.48316365,-0.4883725,-1.25927711,0.62667894,0.5004645,-0.32487342,0.17287605,1.22210729,-0.00288829,0.45464,-1.04526687,-0.11012419,0.35074538,0.2394896,-1.40728831,-0.85341579,1.15730441,-0.86844301,-0.13902308,0.37762299,-0.28721049,-0.85481608,1.01958299,-0.19258912,1.09401226,0.94367158,-0.13569006,0.34206796,-0.11938882,-1.22058499,0.21621779,-0.65755647,-0.976668,0.37765864,-0.14546964,-2.07236433,1.07120204,-1.32472372,0.54630888,0.95234698,0.12565105,1.61438632,-0.25850576,0.84498036,-1.04041719,0.37878758,1.69999385,0.12509282,0.42960611,0.36769563,1.20436406,1.84323525,0.33174396,0.40972382,-0.54103321,-0.73886955,-0.9576146,0.93316668,-0.14407603,0.46808943,0.22825496,0.49660021,0.90040696,0.74887264,-0.237409,-0.30740955,-0.52539527,-0.84639817,0.10819425,-0.1310734,0.797032,0.51177102,1.44766319,-0.15283097,-0.25832421,-1.67485499,0.10417845,0.55362272,0.17854521,0.45747653,-0.21984513,-0.68531942,1.21388829,0.90865481,0.38173643,-0.9312979,0.48444447,0.70614117,0.93597382,-1.24720013,0.73686659,-0.05078073,-0.89811134,-0.02862795,0.32321101,-0.05291788,0.46650761,1.46881425,0.98615628,-1.01632237,1.57757604,-0.98330003,0.35903603,1.23881626,1.55965817,-0.36550283,-0.1378369,-0.13468935,0.86208165,-0.77312279,-0.89206541,1.00574434,-0.10485904,0.38680857,1.70813251,-0.91055202,1.03763056,-1.36558247,-0.64119083,-0.70767552,-0.33697706,-2.94661951,0.01084647,0.60259539,1.50589967,0.12265785,0.09051732,-0.27807683,-1.00286448,-1.36021662,0.09631065,-0.13839445,0.96805495,-0.27424842,0.05589842,0.20206182,0.59445792,-0.2703864,0.32034531,-0.5717082,-0.09208897,-0.7973491,0.90168774,1.30463028,-0.1657612,0.44109902,-0.27948928,-0.08107755,-0.26311833,0.14090367,-0.0750135,0.70445782,-0.85463822,1.9763298,1.45632267,-0.6307829,-0.63348216,-0.70762342,-0.47363049,0.43508673,-0.76179743,-0.16701111,-1.5439707,0.27590519,0.17282987,1.31129348,0.38162309,-1.18706644,0.52708864,1.39092326,0.1946822,0.34793511,2.48543739,1.03427041,-1.25373769,1.12134957,-0.59069288,0.60707885,-0.86861932,0.39223379,0.62415737,0.19688725,0.39671808,-0.6323548,-1.04042506,-0.5310511,0.3954246,-0.22143817,0.18507259,0.00781925,0.66751158,1.42380023,1.07192492,-0.27624902,0.35136199,0.52774405,-0.31237483,0.3102814,1.40804338,0.67903376,-1.22215009,-1.4028405,-0.13793156,1.04576159,0.65541017,0.72617131,-1.37140894,-0.77818841,-0.72463351,-0.18034868,1.0912416,0.98262817,-0.58145982,-0.62071669,0.80881375,1.34160817,0.30204955,-1.17847729,-0.16362083,-0.97446316,0.37200996,-0.5684756,-1.21437573,-0.19748099,0.09969469,-0.48058486,0.22540274,-0.9074769,0.02681491,-0.28750125,1.61674535,-0.7713294,1.78684175,0.22348738,0.26893204,-0.52850991,0.10318743,0.60839516,0.59756577,-0.94182032,-0.60440588,0.72233999,1.21454561,-0.36054951,0.00475014,-0.22870116,0.0814587,0.34816673,0.60235906,-0.72451365,0.10015738,-1.24777853,0.7888931,-0.98177308,0.5204671,-0.33192563,-0.53645897,-0.08045858,1.24899793,-0.77083027,-0.68510538,-0.56227607,0.12052228,-0.88882101,-1.13862658,1.00599182,-0.00012044,-0.84981602,-0.79404813,-1.1378324,-0.25784546,-0.9307965,-1.20202446,-0.61297435,-0.65589774,-1.61158967,0.53854179,-0.45289317,0.05490448,0.23895462,-0.55580831,0.86928481,-0.06857277,0.17755011,-0.81817055,-0.85232544,0.19269493,-0.0882789,-2.29129553,1.21614504,0.31827182,-0.7002427,-1.56468284,-0.73026437,0.21426459,0.77923667,0.10102133,0.08651088,-0.82592571,0.73603791,-0.18126622,-0.32767981,1.3634603,1.18301749,-0.20885618,1.13996673,-1.30269837,0.28110844,1.04182053,0.86919177,-0.59356177,1.59714532,-0.3689056,0.68048829,0.1883769,-0.52082962,0.98603266,-0.48066464,-1.7869755,-0.22080342,-0.22739358,-0.57427186,-0.54362297,0.27970275,-0.51467162,-0.17425677,-0.54266626,-1.25743198,0.45626765,-1.48418164,1.47819901,0.68817151,-0.19423513,-1.61501336,1.29704499,-0.14751922,0.55375612,-0.1103909,0.71373808,-0.36232552,-0.94079316,0.22418363,0.17548883,-0.97909391,0.05795245,-0.51204616,-2.35815024,-0.61406261,-0.03577036,-0.5568741,-0.37634942,0.85683185,-0.39497361,0.96229917,-1.39420414,0.06860372,-0.77979696,1.00523722,0.52541173,-0.64357066,-0.00299202,0.0311297,-0.92215741,1.31694293,0.59297311,0.70528495,-0.16472352,0.01531247,-0.19477883,1.17778134,2.95965528,-0.72141826,0.78431517,-0.04375446,0.81732845,-1.76783061,0.91064435,0.71271211,0.83506519,1.78145242,-0.44706637,-0.37812591,-1.61512065,0.84566611,-1.40143859,-0.48986346,-0.98748028,-1.46677554,-0.41354704,-0.0913678,0.88588345,1.00158489,0.06572634,-0.26992831,-0.34221783,-0.01664622,-0.11901124,0.42880148,0.5620088,1.97034776,-0.08037377,2.60328054,-0.73429501,-0.59661543,3.30105329,-0.57821119,-0.65998667
筛选专员	-1.03548765,0.15926167,0.39571008,0.04260656,-0.44002309,-0.0453186,0.28421488,0.51771587,0.92153698,1.46193981,-1.29983532,-0.00912389,-0.38289404,-0.1886382,-0.66979295,1.01147902,-0.17139207,-0.4511092,1.02032483,1.61066103,-0.88671303,-0.70741421,-1.04334533,0.23799746,-0.12017474,-1.54628527,0.62493104,0.4750475,-0.84952849,-1.35322189,0.15559557,0.59624356,1.7342602,0.66591889,-0.26545152,-0.99533266,0.0992189,0.44352165,-1.41555941,1.1856252,0.65176708,0.54842001,0.23105831,-1.96322596,0.34486881,-1.26915455,0.26953974,0.70456004,0.09057321,0.85194969,1.69596446,1.00701761,-0.68621284,1.10206974,0.47430173,0.54563582,-0.50209194,-0.13266405,0.479774,1.1686728,1.13025761,0.24101637,-1.63643825,-1.2285744,1.23312843,-0.45587775,0.60598654,-0.05090122,0.30624962,-0.40361333,0.36904225,-0.42988834,-0.25695863,0.11127041,-0.79706758,-0.66932482,1.45449126,-0.50772309,0.03125387,0.64660788,-0.74408746,-0.26775014,-0.27194425,-0.87717104,0.74033374,1.1182121,-1.05095541,-0.90210575,0.08708426,-1.84651566,-0.09747323,-0.06546925,0.59295535,-0.87288642,0.07709121,-1.42875135,0.91424209,0.24490917,-0.92279953,-0.25651321,-0.71680051,-0.76531315,-1.61915112,-1.74159145,1.05010569,-0.883681,-1.73065519,0.29897913,-0.27969608,1.51919794,-1.06493771,-1.05587304,-0.97971982,0.04004114,-0.16420808,-0.25407541,-0.60676998,0.24730907,0.57340211,1.71722758,0.19641475,0.66353053,-1.70541561,-1.12019682,-0.54380208,-0.91891646,0.93607903,-0.56726068,-2.40893626,1.13175404,0.02717557,1.14461458,-0.58752811,-0.06576642,0.43116355,-0.99699849,-1.64873302,0.49437627,-0.01060909,-0.00305098,-0.50787431,0.84134811,0.20974346,0.51333588,1.07743418,-1.81259239,0.78791714,-1.30874395,-0.40287665,2.02774739,0.20915027,-0.89648253,1.29434645,-1.68721139,-0.55860454,0.12234268,1.22888231,-0.00789276,1.48746204,-0.16321178,-0.21499294,-1.02223432,0.57262522,-1.0087347,1.71767795,-0.5442583,-0.26685664,-0.65531588,0.72195262,0.95950645,-0.99012119,0.54861969,-0.72107726,0.17531019,-0.92748672,0.52730101,1.64171088,-0.2071345,0.46160808,-0.42442194,0.7503435,0.87238699,0.28704348,-0.20202649,0.54992455,1.21268225,-0.18549603,-0.20656241,-0.97850782,0.43479607,-1.01441503,0.43857303,0.38562587,0.472967,0.43043423,-0.41700426,1.23333657,-1.77297938,-0.57769495,-1.16831553,-0.07941824,-1.24968445,0.34782365,0.93905282,-1.38185847,0.29718316,-0.62465912,0.40257359,0.06316325,1.19377363,0.18286054,0.30978623,0.51888829,-2.13902426,1.04769778,-0.39029732,-1.83299744,-0.11535568,0.76391268,0.13167471,-0.66126913,0.15412675,-1.46254385,0.19340576,0.32874218,-0.83687973,-1.04137838,-0.01914503,-0.52606702,-1.11192191,0.36775914,-0.60980362,0.81130785,-1.16506374,0.77485913,-0.50715786,-0.05097632,0.40893379,-0.78188509,0.79629844,0.56086653,-0.12176292,-0.7179839,0.581765,0.16930766,-1.82902873,0.29535818,-0.43677449,-0.95237178,0.89414531,-0.52203053,-0.2714406,-0.27491984,-1.15696132,0.59746075,2.45669532,-0.11418984,0.73995328,0.39594209,-1.59837019,-0.49892783,-0.79731506,0.21495135,1.77995956,-0.19557649,-0.30103901,-0.45692948,-0.04044577,1.3355999,0.88083953,-0.19586988,0.8455494,0.68404943,-1.4458456,-1.15512645,0.90707844,-0.87211728,-0.36007714,0.68765217,0.61111265,-0.13411076,-0.85260803,-0.28641912,-0.06128841,0.73902178,-0.1291611,-0.20261715,0.12216225,-0.2776345,-0.99212432,1.41929305,0.31623018,0.60630792,-0.54666436,0.09790472,0.6276195,-1.12039971,-0.11907243,-0.03729457,-0.53516167,-0.01461458,0.69113857,-1.0055455,0.63824397,-0.83751798,0.49692908,0.60670429,-0.54680556,0.51477045,-0.41195598,-0.83897096,-0.91032869,1.72254276,0.25178337,-0.31588802,0.6014536,-0.09442245,0.1966161,1.05700481,-0.04298486,0.34690568,0.85300463,0.15187639,1.38451135,0.76246589,0.7280696,1.09377241,-0.3155416,-0.09837845,-0.29571614,-0.43118703,0.59261042,-0.32219991,0.07120573,1.81093502,-0.5684194,-0.47888002,-0.74094582,-0.74666005,-0.80176407,0.04609895,-1.0432415,1.50844133,-0.05564356,-0.03793674,-0.31253648,0.64545566,-0.48388043,-0.17359,0.2660735,1.99579203,-0.30805615,-0.07651652,-0.11529634,-1.19444764,0.83156317,0.76891547,-1.23343909,0.66127169,0.37389183,-0.51724839,0.48645353,-0.53849047,-1.2993542,0.61659223,0.45539927,-0.36819354,0.16684325,1.1640259,-0.01696849,0.41316423,-1.05356753,-0.09433091,0.37983981,0.27843553,-1.43224561,-0.83309585,1.17355788,-0.87976313,-0.16881609,0.38492048,-0.13727751,-0.90987426,0.97861457,-0.19585998,1.05793095,0.92965794,-0.18634456,0.3513777,-0.13093047,-1.29228127,0.22173484,-0.65410894,-0.96037704,0.42105067,-0.14503036,-2.02773833,1.01169491,-1.2844646,0.54691231,0.92305374,0.15238424,1.57683027,-0.27399567,0.74868894,-1.04258144,0.34294942,1.69059932,0.09012481,0.37585059,0.39037648,1.17672884,1.79675436,0.30996397,0.40239671,-0.5346837,-0.72520322,-0.92561716,0.92556781,-0.09288558,0.55043185,0.23393826,0.47368321,0.94524997,0.79790217,-0.24256963,-0.29772434,-0.48718703,-0.86839789,0.17745878,-0.0954585,0.81696939,0.52005321,1.45904624,-0.10020568,-0.27687007,-1.64866626,0.10351221,0.52883506,0.14627676,0.46816811,-0.18177426,-0.69377971,1.17888534,0.94192553,0.3134253,-0.92313319,0.48115277,0.71402651,0.98993778,-1.26711309,0.70227379,-0.04184305,-0.92526817,0.0209943,0.33377528,-0.01545783,0.48846641,1.50168943,0.93726724,-1.00946903,1.63926351,-0.98846245,0.29115143,1.25586164,1.49804771,-0.40616724,-0.09474645,-0.20770222,0.86363524,-0.77811003,-0.87703109,1.08914614,-0.1210602,0.40014184,1.7191633,-0.89801723,1.03885829,-1.37109363,-0.68417007,-0.72188622,-0.34953412,-2.84384084,0.00635246,0.54317331,1.44674015,0.20260559,0.11713531,-0.25699964,-1.04348099,-1.36723864,0.0570876,-0.1812598,0.99915427,-0.27237597,0.07930567,0.1522198,0.56666845,-0.24654515,0.33665863,-0.56566995,-0.14313601,-0.78954172,0.94042087,1.31250072,-0.14554808,0.42742732,-0.24252762,-0.05461804,-0.29372269,0.21959251,-0.05638869,0.72803611,-0.87249666,1.90897238,1.45087516,-0.61222655,-0.712547,-0.72698146,-0.47366521,0.37392175,-0.76159495,-0.204409,-1.54073894,0.25863564,0.14790103,1.31565487,0.41982177,-1.23230994,0.62021941,1.48056257,0.08907539,0.40126023,2.43074608,0.93687886,-1.24039054,1.09835351,-0.56274813,0.56829828,-0.83274788,0.4096036,0.64298457,0.22609191,0.32605061,-0.59594089,-1.05083477,-0.47247115,0.29594728,-0.21171539,0.27492312,-0.01081259,0.71574408,1.43272495,1.11935663,-0.25393549,0.3554388,0.55287451,-0.26040268,0.25166938,1.43487012,0.65072161,-1.1688894,-1.45850599,-0.08851277,0.99439216,0.67446047,0.7534461,-1.34385347,-0.75981665,-0.64119434,-0.15143336,1.17257965,0.95038849,-0.59801453,-0.60921955,0.79733545,1.28588736,0.33198455,-1.22739422,-0.20135395,-1.0221802,0.40465188,-0.50075662,-1.14336622,-0.2196371,0.02748292,-0.49750635,0.20742464,-0.85384566,0.03171475,-0.28011286,1.54993916,-0.76183063,1.75974667,0.21696661,0.23414554,-0.53640801,0.12936155,0.64006591,0.56719005,-0.92826319,-0.67129898,0.74624735,1.20233536,-0.3545444,-0.02286272,-0.22415125,0.0968842,0.32741287,0.61615211,-0.74958414,0.11606178,-1.19263816,0.74909467,-1.04699528,0.52544242,-0.34414896,-0.52818364,-0.06852878,1.25077486,-0.85321671,-0.61270046,-0.50160038,0.09028897,-0.90167475,-1.05886567,1.0403254,0.04144922,-0.91309458,-0.85027975,-1.17346203,-0.27339825,-0.97777343,-1.16613281,-0.59409016,-0.78470999,-1.59926927,0.5305903,-0.43153718,0.06180973,0.21865295,-0.60434479,0.85052162,-0.10768926,0.09934942,-0.76501775,-0.84087753,0.21834242,-0.07185511,-2.25046062,1.24427056,0.3335413,-0.74553776,-1.59109747,-0.7816723,0.22951329,0.72731227,0.10490733,0.12198621,-0.86588341,0.82535404,-0.14567225,-0.38824788,1.35144365,1.12328768,-0.16750659,1.12212384,-1.29883313,0.32035002,1.05038023,0.78105623,-0.57370991,1.63113916,-0.42434609,0.60879648,0.16023828,-0.48134658,0.9727425,-0.42386606,-1.81044495,-0.21077394,-0.18499321,-0.53950948,-0.55920023,0.23746862,-0.52961546,-0.15799971,-0.60708022,-1.21727383,0.3637782,-1.47127438,1.46126783,0.72414225,-0.18980688,-1.61081934,1.30017197,-0.10921524,0.63661772,-0.12475719,0.72378182,-0.40012884,-0.85293084,0.24139215,0.23526938,-0.90770024,0.08862942,-0.52765822,-2.39548039,-0.61763859,-0.09770852,-0.59908909,-0.34608531,0.81231594,-0.37317935,0.94096071,-1.42003,0.02390211,-0.81486964,0.96859771,0.46690223,-0.64443833,-0.01605953,0.0035768,-0.92823583,1.38035977,0.54413843,0.68128294,-0.19847281,0.05073351,-0.24281456,1.17224371,2.99331188,-0.74603444,0.76050991,-0.03041047,0.84642196,-1.8014555,0.93842727,0.6961692,0.83517677,1.86080599,-0.47997203,-0.43124568,-1.57609189,0.9128046,-1.34288371,-0.46918139,-0.94735956,-1.51245081,-0.42779753,-0.07783786,0.87317467,0.96708399,0.02676601,-0.24736302,-0.40024975,-0.0447415,-0.14279126,0.42500255,0.58768159,1.98694277,-0.06712764,2.5842545,-0.73676032,-0.53283727,3.31246662,-0.56994408,-0.68712378
筛选工程师	-0.59697163,-0.1704479,1.44408166,0.28723052,-1.23588824,-0.15317367,0.32683435,0.43783697,-0.563281,1.60882592,-1.28844345,0.01789186,-0.0216601,-0.44933608,-1.24609661,0.76560706,0.12388543,-0.19659905,1.13479853,1.44576538,-1.23794758,-0.25238135,-0.7675637,0.15411176,0.74251324,-0.80391228,0.55690396,0.8843078,0.81920463,-0.73175985,0.21955326,0.86378926,1.47059917,0.95962149,-1.29382813,-0.86760861,-0.17945488,0.43418193,-0.69489253,1.57793176,0.62945372,-0.07793342,0.03463372,-2.0012691,0.4408479,-0.76571763,-0.06843865,0.6933803,-0.43884727,1.1772126,0.49078512,0.90142453,-0.97152299,0.80032909,0.22733589,0.68042475,-0.27258223,-0.4478603,0.71229106,0.54595625,0.91106111,0.41494593,-0.17332663,-2.11110997,1.28254402,-0.31066719,0.97491598,-0.50048363,0.55673105,-0.78469449,-0.81600779,-0.94976908,-0.09631985,1.79422271,-0.45246559,-1.90769637,0.92927057,-0.07102948,0.02864993,0.52734041,-0.75001037,-0.99618393,0.27767158,-1.45755219,1.57462525,0.54801947,-1.08480465,-1.04839897,0.18370716,-0.77472007,-0.87423378,0.06054612,-0.06324597,-0.62998229,0.67284137,0.95968753,0.95987302,0.04479688,-0.61079413,-0.00660627,-0.70481569,-1.03301656,-1.52334154,-1.71447051,0.77785969,-1.0704993,-1.89118946,0.13605814,0.12734939,1.19656265,-1.21139336,-0.8450346,-0.94691944,0.23673211,-0.80815399,0.1338785,-0.04878197,0.49502549,0.76875335,0.9716258,-0.09055389,0.5844903,-1.10389197,-0.42816454,-0.00378554,-1.61346662,0.43246168,-0.32476631,-1.99097145,1.49500453,0.4742029,1.4334985,-0.99339265,-0.19580729,-0.60894382,-0.87178242,-2.05022407,0.62067145,-0.30501702,0.06232634,-0.57504511,0.78066933,-0.04475323,0.9259063,0.17809638,-2.00759482,0.43156296,0.874403,-0.64227283,2.04954457,-0.42017895,-0.05920075,0.68852234,-0.81975716,-0.78851849,-0.13799767,0.89366233,-0.28530517,0.29302421,-0.00343158,-0.35960263,-0.78461128,0.64015979,-0.24312231,0.96047288,-0.07494666,-0.12733585,-0.87833244,1.47114372,0.65423328,-1.67010999,1.72096086,-0.31474015,0.74306768,-0.55949122,1.18335974,0.98046821,-0.48825961,0.12811649,-1.06302822,0.03528404,0.97607434,-0.2544938,0.07662188,1.26140654,1.45314717,-0.33358866,-0.04047002,-0.35326323,0.51364607,-0.91433764,0.97161895,-0.35887179,0.17289464,0.21200435,-0.56665701,1.34552932,-1.34542501,-0.21807051,-0.63048756,-0.33415312,-0.66563129,0.44189325,1.07608533,-0.498539,0.61799282,-0.54614341,-0.57804388,0.38261667,0.49424544,-0.42937422,0.52010286,1.08382344,-2.33084273,0.30327711,-0.66359413,-0.47580478,0.26102811,0.10389125,0.01955636,-0.71006435,0.03162174,-1.03803158,0.5973056,0.4838931,-0.87690204,-1.11328399,0.34082511,-0.10926255,-1.26739705,-0.46848854,-0.90368384,1.84268761,-1.23343313,1.00305593,0.21514153,-0.31333923,0.45355585,0.31895927,1.03531563,0.4568834,-0.30562878,-1.01312554,0.60821372,0.10053788,-1.50660956,0.39565644,-1.80718398,-1.23962128,0.04149711,-0.38720414,-0.51548851,-0.19318013,-1.32819653,0.71855986,1.5033406,0.07056077,1.23610032,0.74709123,-0.65947384,-0.81706566,0.35631779,0.27312583,1.94751835,-0.35440996,-0.08644255,-0.0866726,-0.00684822,0.3587656,0.90088499,0.05327017,-0.83260691,0.20564295,-0.59448045,-0.86863816,0.89099133,-1.0258379,-0.69457656,0.16632649,0.62011105,-0.12078539,-0.71978456,-0.10175369,-0.04103583,-0.76282746,-0.21724892,0.98037976,0.31740528,0.33687136,-1.58412611,1.93927765,0.36660075,0.63029283,-1.30970252,0.20620267,0.63315725,-0.94734067,-0.23123308,0.12430114,-0.79141283,-0.215628,-0.60005903,-1.30007708,0.59458107,-1.3034085,1.50819194,0.65028101,-0.69064343,0.40032631,-1.05577028,-0.82537234,-1.40119624,-0.18473756,-0.03047048,0.021072,0.41654405,0.10241659,-0.16404779,0.49763289,-0.39319351,-0.41701558,0.47891068,-0.02157122,1.14414895,-0.81942779,0.78674495,0.27072701,0.94089705,0.42699146,0.17178373,0.26173818,0.84828991,0.71064585,-1.08044899,1.82551944,-0.94349152,-0.31044015,0.12863617,-1.95995319,-0.34587285,0.31803781,-0.5823828,2.44455552,0.05874455,0.05777194,-0.26626325,0.38258949,0.37015727,-0.17278728,-0.15689254,1.40150428,-0.24736987,0.02214287,-0.83239549,0.37435389,0.82499206,1.7307092,-0.63717544,0.25592729,-0.03423351,-0.99533647,0.05184875,-0.56290853,-0.40454206,0.64354324,-0.25606671,-0.21687898,-0.20529178,-0.19396317,-0.01355591,1.02394474,-0.96852857,-0.21219023,0.25240964,0.46272454,-1.65996766,-0.29078192,1.0795089,-0.50198191,-0.32170507,0.44111842,0.64451021,-0.16170284,0.44352508,-0.83587366,0.48710424,0.31304458,0.00335272,0.84442377,0.33208674,-2.02126932,0.03694264,-0.57415718,-0.48966128,0.55881363,-0.15079124,-1.23570657,0.65241784,-0.96205264,0.45374092,0.69686836,-0.29687476,1.25398254,-0.12400322,0.73623186,-1.23449075,0.2894215,0.95748597,-0.37278649,-0.88192415,0.5161643,-0.06044722,0.93040514,-0.00662406,0.30695421,-0.97506672,-0.34503052,-0.40887901,0.06342919,0.38850382,0.78671366,-0.63624531,0.28842092,1.06480634,1.668957,0.28920722,-0.21882026,-0.80437553,-0.64798135,0.38300651,0.53918016,1.20216334,0.82329279,0.01953558,-0.42323008,1.63082349,-1.03439081,0.41547939,1.42405212,0.04484818,-0.97157866,-0.63992399,-0.8927539,-0.12165879,-0.01613929,1.22368073,-0.69983441,0.15514016,0.3690117,0.73914939,-1.21750188,1.16479385,-0.3016623,-0.51410073,-0.01569508,-0.09664844,0.16343363,0.82467324,0.84575987,0.64735955,-0.55815691,0.91542107,-1.1091646,-0.25305364,1.54528606,1.29689634,-0.23018382,0.33504432,0.00506673,-0.12634669,0.76293409,-1.47846532,1.01969278,-0.14625324,0.91382456,0.53747046,-0.65401608,1.05030334,-0.26472747,-0.71450251,-0.78611487,-0.60405105,-1.66247308,0.43851885,0.00897152,1.37644792,1.48350394,-0.04375265,-0.1887773,-0.90606636,-0.98296678,0.71561915,0.10398672,1.48144662,1.22409713,0.08379872,0.13224719,-0.58566695,-0.47767633,0.99487603,-0.56273282,-0.78308338,-1.13328683,1.06532168,0.47687787,-0.27940026,0.16754544,-0.49194759,-0.15111165,-0.29729244,0.30885997,0.10014563,2.17819977,-0.82646018,1.10090292,0.87920672,0.56933415,-1.48633194,-0.8197785,-0.53086203,0.61409646,-1.00934184,-0.31828451,-0.69763738,-0.08826634,0.86231124,0.84099019,0.31859979,-1.77826321,0.96414554,0.03733318,0.06838309,0.51167655,0.93147057,0.45437858,-2.04210639,1.37502182,-0.61561555,0.87420666,-0.46718305,0.12811126,0.77295446,-0.13430767,0.33874109,-0.72934133,-0.76489246,-1.4442476,-0.2362939,0.22482915,0.57323503,0.15149093,0.76125157,1.16265929,1.29037082,-0.15212683,-0.83062631,0.53205431,0.15394902,-0.6696015,0.62182534,0.4733505,-0.82813329,-1.4073602,0.21521401,1.04624677,1.62778127,-0.1388935,-1.21937811,-0.87765086,0.1599942,-0.17582928,1.2724148,1.28079402,-0.60987461,0.66631025,0.65143108,1.51169288,0.47679681,-0.96300691,-0.22420655,-0.48441291,0.6117512,-0.27906281,-1.05077422,-0.27759415,0.26441556,-0.88540584,-0.56237537,0.38747317,0.15020426,-0.35701293,1.08363235,-0.94755727,0.91906661,0.24636705,0.83500606,0.39370528,0.09325904,0.73514706,0.23732638,-0.21385445,-2.04413366,1.09665513,1.21543324,0.24245612,-0.47597077,-0.21023364,0.37972811,0.69447863,1.00026166,-0.91189849,-0.32007006,-0.93039292,0.83527309,-1.60869026,0.03503281,-0.74031878,-0.66077054,-0.17087889,0.90590191,-1.2410208,-0.42080975,0.80902731,0.24932761,-1.4356451,-0.42590547,1.15931189,-0.10155883,-1.08019781,-1.05482423,-0.06259246,-0.35701588,-0.47886816,-0.45075312,-0.32613096,-1.64904392,-0.56854051,0.93705446,-0.5268144,0.10180122,0.72756678,-0.78886509,0.78167218,-0.33434883,0.03269198,-0.55036682,-1.11874473,0.36715084,0.12614802,-2.78302383,0.82798988,1.15157056,-0.44399771,-1.19702911,-0.94387788,-0.49076563,0.05480972,-0.11089509,-0.23026292,-1.05779803,0.49727637,-0.06901415,-0.63466364,0.65125465,-0.32745239,-0.22679207,0.91236669,-1.10706639,1.89082992,1.07103777,0.68584812,-0.50793332,0.81906235,-0.04864701,0.30462262,0.65586787,-0.79152578,0.45260456,-0.43907553,-0.32133052,0.06187687,-0.1952641,0.1302527,-0.50697941,-0.15695091,-0.64105505,-0.41314769,-1.22834027,-0.00766417,0.84551603,-1.40444696,1.08070052,0.76593846,0.16110791,-1.63286102,0.4378517,0.38074833,0.76076955,0.2978704,1.1388731,1.30626941,-0.40850353,0.05164908,0.41859046,-0.74340063,0.83930403,-0.86454171,-1.21049368,0.05355951,-0.48176575,-0.90025508,0.02706778,1.2319926,-0.58185685,0.10239375,-0.31534937,-1.09709489,-0.27529556,0.76745182,0.30246434,-1.61893106,-0.11327501,0.20157135,-0.91871846,1.99080729,-0.14540055,1.42803681,0.17905952,-0.29668325,-0.24959452,0.8735553,1.57779312,-0.89853626,0.7765134,-0.0931133,1.19469476,-1.68772757,0.97360146,0.62878472,1.42621124,0.86250156,-1.21128082,-0.43792695,-1.55300033,0.75868469,-1.02820885,-0.6172902,-0.37505028,-1.18256688,-0.22928689,0.07263521,0.47247073,-0.56895131,-0.27247936,-0.39995989,-0.48834261,-0.30210558,0.07705624,0.25680545,1.14480138,2.82434797,0.32222205,0.62253344,-0.77231586,-0.01990023,2.51162076,0.22933672,-0.49507412
筛选主管	-0.5750944,0.44723618,1.50227022,0.28360039,-0.74610543,0.0756452,0.583965,0.34646928,-0.28008258,1.52243471,-1.29817724,-0.05999268,-0.2190982,-0.12917401,-1.53689563,1.48290193,-0.01522771,-0.33636728,0.70747119,1.74531496,-1.10568786,-0.71643734,-0.83788496,0.09912979,0.07074293,-1.09598124,0.70337778,0.08540051,-0.27718341,-1.76783025,0.39960328,0.56793278,1.3831352,0.53353685,-0.88843411,-1.13068283,-0.66784674,0.30945989,-0.6385296,1.13048065,1.03782463,-0.33373785,0.699323,-1.51785994,0.7700209,-0.75331593,0.59317541,0.83443826,0.01820802,1.08982825,1.50006855,0.94060779,-1.12290418,0.51021022,0.32341573,1.03978169,0.18449341,-0.04025352,0.47619858,0.42006877,1.39505637,0.77970392,-1.54832876,-2.07661271,1.49452245,-0.17713614,0.2137071,-0.00820172,0.31026766,-0.43596148,-0.20884001,-0.67373401,-0.52603376,0.69944173,-0.02204415,-1.23099494,1.47429788,-0.24391067,-0.02673659,0.83702207,-0.82948232,-0.72240353,-0.34389988,-1.00593758,0.33879218,0.78852159,-0.63348597,-0.85980129,0.08596452,-0.85639089,0.29102483,-0.10228939,-0.15783781,-0.70194262,0.32124886,-0.24299292,0.73886871,0.05740159,-0.78675622,0.57929724,-1.03249097,-0.98882359,-1.61750472,-1.96228135,1.20484447,-0.68587202,-2.18126392,-0.21296442,-0.07341262,1.13509071,-1.46491289,-0.7781024,-0.76748919,0.03297727,-0.18267347,-0.41610596,-1.1948756,0.38460866,1.48170483,0.95297217,0.56003481,0.90720969,-0.88484913,-0.74295849,-0.1689679,-1.33201981,0.72876674,-0.94783813,-1.62482822,1.29874575,-0.12672907,1.50719297,-1.22299087,0.16331147,0.77685231,-0.84795684,-1.14353931,0.5986765,-0.52561015,-0.06940382,-0.37127945,0.91402823,0.02748569,0.05672045,1.89381218,-1.8578434,0.4062084,-0.92815584,-0.61752373,2.1473577,-0.31968364,-0.14219703,0.98365259,-0.78171438,-0.77226645,0.24219455,1.5172205,-0.31095925,1.26974869,-0.68708682,-0.19807367,-0.43889293,0.18025452,-0.59608597,2.2331233,0.48487508,-0.52466786,-0.59938782,1.51046276,0.56246758,-0.91733783,1.58865833,-0.38498262,0.59598809,-0.62627351,0.84396958,0.92809868,-0.04437679,0.14748843,-0.92972922,0.8087182,1.01995838,0.25129822,-0.05308028,0.15757762,1.76750314,-0.23170276,-0.20922326,0.05559722,0.61385083,-1.06751025,1.08465326,0.35334906,1.22302043,-0.02548463,-1.02367818,1.22329962,-1.39213622,0.13497309,-0.38901028,-0.13461675,-1.5525018,0.52669907,1.31091928,-1.1732645,0.23254795,-0.27883682,-0.58943868,0.38973391,0.69346267,-0.05406972,0.19771159,0.56584847,-1.97560215,0.94741154,-0.29833293,-1.36365688,0.40750536,0.52320784,0.08049615,-1.09571493,-0.27802143,-1.04678571,0.43563738,0.38597175,-0.77518231,-1.17417753,0.26021618,-0.31908926,-1.27917099,-0.30413678,-0.68878335,2.17994404,-0.51585835,0.4428651,0.41570273,0.2458353,0.33131334,-0.42904568,0.88898921,0.30084902,-0.18747155,-0.85089421,0.89059019,-0.28773639,-1.54716575,0.2966634,-0.87382293,-1.45570266,-0.51695436,-1.04509258,-0.2199591,-0.31450114,-0.2071659,0.15371658,1.34670067,-0.14734004,1.51724494,1.0637182,-1.01794183,-0.67112738,-0.32568794,0.62875217,1.54601038,-0.40445575,0.02531151,-0.20573197,-0.13360398,0.91942167,1.22781003,0.01957119,0.5740537,0.298637,-0.79450136,-1.52587974,1.18150008,-1.23232579,-0.11808013,0.63018352,0.74246055,-0.35255778,-0.61697304,-0.8374998,-0.18241543,-0.1821952,-0.12733206,0.74911356,0.15104209,-0.31624064,-0.95035148,1.37408257,-0.12943813,-0.24808425,-0.81310129,0.27732027,0.46890998,-0.78616315,-0.45140323,-0.1195332,-1.16355264,-0.06777198,-0.90444332,-0.6669209,0.39948583,-1.2684015,0.04429719,0.67948514,-0.65272623,0.52942663,-0.41540602,-0.72305232,-1.29164684,0.96867132,0.25306883,-0.62345016,0.54213417,0.0435704,0.25753492,0.59529781,0.27393919,-0.39433622,-0.12428977,0.27290598,1.63108253,-0.34987545,0.69125056,-0.12107477,-0.02381843,-0.0255595,-0.15142074,-0.02218495,0.35228622,-0.28112081,-0.81704789,2.50807405,-0.61002183,-0.00810454,-0.18876348,-1.12742221,-0.37488055,0.27105713,-0.6855526,1.26322448,0.4103291,-0.28779456,-0.6432721,0.71108675,-0.37353444,-0.07564979,-0.00067107,1.08567107,-0.5728175,0.31618086,-0.45240733,-0.29329541,0.8010754,1.35478079,-1.49958098,-0.03043774,-0.280599,0.11036291,0.08893905,-0.56573009,-1.06035256,0.65573955,-0.35950473,-0.5656637,0.0293932,0.61785597,0.21682851,0.97217542,-0.17474104,-0.24337365,0.50242931,0.09619535,-1.45309174,-0.70221853,1.04497182,-0.59736586,-0.50930536,0.30746448,0.63375747,-0.95145535,1.03798842,-1.25059843,1.28856146,0.52339607,-0.007862,0.59607148,-0.12587385,-1.98579073,0.44035456,-0.66433287,-0.37624517,0.37953424,-0.05230038,-2.15987849,0.84568334,-1.25908816,0.72611523,0.77220505,-0.27313223,1.88498151,-0.83936644,0.86044121,-0.95248151,0.58367044,1.69309521,-0.00794635,-0.35155663,0.35522494,0.16563575,1.35146379,0.46309617,0.51417893,-0.55582863,-0.67370987,-0.999394,1.09787238,0.18848853,1.06240582,0.56659073,0.87195873,1.08993959,1.53650427,0.06262144,-0.32126263,-0.70713878,-0.57548189,-0.24749541,-0.47782865,0.92175031,0.45515236,0.85060292,-0.27158552,0.97704619,-1.61192,0.25835177,1.51310551,0.10950758,0.1024574,-0.26844558,-0.76510185,0.56434512,1.25125492,0.34087941,-0.68013066,-0.0339776,0.80622202,0.82698447,-1.49704635,0.74837357,-0.39746106,-0.91761333,0.42897424,-0.22629549,0.17818387,0.64161199,0.94965321,1.01549542,-0.3461518,0.88714623,-1.1592325,-0.27009127,1.68496382,1.36262786,-0.38654721,-0.16817375,-0.05471003,-0.36770979,0.73145801,-1.28280604,0.99470097,-0.08951823,0.55314928,0.97156292,-0.38998064,0.70046043,-1.45450723,-0.70346433,-0.82007295,-0.49716032,-1.96264565,0.41263923,0.75849658,1.42267597,0.76892585,-0.29267082,-0.02570058,-1.05307078,-1.317397,0.70542097,0.80639428,0.7048772,0.43974614,0.1293712,0.05957247,0.0845864,-0.59633845,0.84879071,-1.27774012,-1.07755852,-1.21064699,0.67343944,0.31842592,-0.01500489,0.56004232,-0.46971622,0.29601249,-0.65920883,0.24525917,0.465487,0.51898319,-1.0027256,0.80473298,1.81032336,-0.08819502,-1.33622825,-0.53018147,-0.52285928,1.29399681,-0.91257626,0.09562772,-1.60754013,-0.29439828,0.25990924,1.33746624,0.292739,-1.07051075,0.97106433,1.39027917,-0.05853333,0.52160472,1.60903502,-0.20790033,-1.52347958,0.3442044,-0.50839788,0.73703241,-0.26331794,-0.5905453,0.22199346,-0.109776,-1.14416933,-0.60277683,-0.9909032,-1.23165333,-0.65665728,-0.67730212,0.91882867,-0.1306781,0.11853743,1.64549685,0.43992245,0.0804979,-0.08655591,0.63829356,-0.00092344,-0.81416339,1.39906633,0.6382888,-1.17256701,-1.33950293,0.06994536,1.44153166,0.80010587,0.15422079,-0.85993624,-0.93020374,-0.12410584,-0.09801906,1.25211298,1.4442004,-0.75116754,-0.27002171,0.86546165,1.12167346,0.56625485,-0.43935767,-0.74526334,-0.40096736,0.29758695,-0.32553127,-0.66550303,-0.12452412,0.46027848,-0.96185714,-0.16491152,0.20390825,0.10242773,0.34369397,0.74953985,-0.80027562,2.41790032,0.14125545,-0.11298949,0.43905637,-0.33899188,1.05363929,0.39318064,0.00700136,-1.77709401,0.35751233,1.43770742,0.14234309,-0.6412698,-0.15321834,0.06837132,0.8639614,0.71754146,-0.59625471,0.00576417,-1.07431972,1.03955972,-1.18198049,0.42452395,-0.49604845,-0.39564404,0.4026691,1.25159574,-0.48405543,-0.75932556,0.17821221,0.23800777,-0.94071001,-0.80325431,0.73095196,0.13145888,-1.07230556,-0.6323362,-0.02320184,0.14988436,-2.14869857,-0.96940237,-0.61127758,-1.71655428,-0.85032415,0.66314852,-0.38542283,0.00100363,0.24079208,-1.05283356,0.41476122,-0.15335022,0.0824195,-0.99504822,-1.38222742,0.49584711,0.10869861,-1.92477405,0.92580682,1.32710719,-1.31228495,-1.44777286,-0.81062633,-0.01576137,0.62332147,0.09155924,-0.18272293,-0.90363401,0.82488316,0.03339694,-0.27310607,2.07038951,0.86961919,-0.21927087,0.67430615,-0.71285409,1.70843089,0.86359161,0.69031376,-0.6354804,0.88600153,-0.39961255,0.56766492,0.47654471,-1.03220952,1.02800465,-0.62863439,-1.58838797,0.3646636,-0.2295673,-0.17570734,-0.74913138,-0.05278298,-0.27872327,-0.56389737,-1.00027382,-1.31906819,0.76373768,-0.56222475,1.16237712,0.72990292,-0.17927377,-1.09022915,0.77958822,0.04565332,0.80266905,0.16419785,-0.01137805,0.13131651,0.09975499,-0.2595683,-0.2305833,-0.93388802,-0.16566525,-1.02131093,-1.45590019,-0.3175593,-0.37117112,-1.24679554,-0.58858079,1.70489395,-0.56456918,0.56478405,-0.72047347,-0.66538388,-0.50902152,1.32142293,0.05188768,-1.38209999,-0.28014314,-0.16564921,-0.83469218,1.75315225,0.09223127,0.64673012,0.10948563,-0.03833732,-0.27450606,1.03135717,3.20084691,-0.79496217,1.18460822,-0.26414719,0.76643568,-1.60396636,0.8182779,0.55639166,0.72128159,1.62552357,-0.69307548,0.01879507,-1.56070232,0.47389674,-1.25687695,-0.88484716,-0.56392109,-1.57889128,-0.0991881,0.22400831,0.91437888,-0.40353009,0.15519674,-0.08382565,-0.33916846,0.80093306,-0.12452865,0.38294885,0.87315863,2.43780541,0.31674352,1.02829337,-0.9325977,-0.39758503,2.88400841,-0.72669649,-0.56363314
筛选岗	-1.07770586,0.12585971,0.46657285,0.07895945,-0.39566779,0.00320274,0.3354592,0.54685271,0.9275254,1.45005512,-1.33912063,0.02229081,-0.32962543,-0.15004009,-0.70617688,0.96620643,-0.20236997,-0.4246645,0.99623936,1.6065042,-0.85236377,-0.65297949,-1.01462591,0.21639514,-0.12918141,-1.45152152,0.51905,0.51568764,-0.81597853,-1.31071901,0.14814949,0.58565509,1.69439697,0.65532666,-0.14721306,-1.01235271,0.0760499,0.37362197,-1.48425353,1.11384392,0.57091296,0.60341752,0.20949359,-1.99771369,0.34333187,-1.18217039,0.29087996,0.73408496,0.10463856,0.8839308,1.7144413,0.93049049,-0.71878541,1.18742394,0.42247406,0.502388,-0.55839634,-0.16857061,0.5057646,1.12719655,1.05696571,0.20299514,-1.60517633,-1.2172997,1.13077962,-0.52284312,0.58388048,-0.00206717,0.25999171,-0.40807247,0.44612399,-0.50118667,-0.29196578,0.17469719,-0.6966511,-0.65833867,1.44477296,-0.54411137,-0.07251892,0.62330574,-0.61453325,-0.25700471,-0.2425696,-0.90354234,0.66157013,1.11431444,-1.05551147,-0.95622665,0.17523256,-1.85797942,-0.05874766,-0.17858288,0.57246774,-0.80406535,0.03482277,-1.38061881,0.88324165,0.20986719,-0.89857614,-0.2855722,-0.69265008,-0.73161584,-1.57756352,-1.75069523,1.04229271,-0.91267091,-1.72613585,0.23886189,-0.30615681,1.53107524,-1.05336928,-1.03675425,-0.98584509,0.09626893,-0.16620259,-0.24318168,-0.56824321,0.24065323,0.53231823,1.77891505,0.21041736,0.67956221,-1.67885756,-1.13994491,-0.53924507,-0.96572125,0.96613771,-0.6064316,-2.48722076,1.00856531,0.10947114,1.2094543,-0.55640358,-0.02635211,0.40699011,-1.00108063,-1.6458801,0.50189608,-0.02875452,-0.03333992,-0.65999323,0.73212624,0.22002402,0.46862417,1.08478594,-1.80980933,0.83354104,-1.3790015,-0.35146075,1.98125076,0.21867557,-0.90369976,1.34922385,-1.63987517,-0.54308188,0.09460252,1.25910401,0.02917846,1.52296448,-0.16812268,-0.19779,-1.01239824,0.54047799,-0.99179143,1.67799783,-0.57216644,-0.30234605,-0.63784516,0.69748181,0.96258307,-0.94993383,0.55717373,-0.80379838,0.18118089,-0.88347721,0.43365994,1.59329534,-0.12169792,0.42416245,-0.38019174,0.73703492,0.92723358,0.32366675,-0.21286678,0.60985672,1.134691,-0.19903721,-0.26388955,-0.97678578,0.40024281,-1.00177312,0.41328797,0.35632253,0.53399986,0.44215941,-0.37442148,1.18222845,-1.85847509,-0.60884863,-1.09001708,-0.13467431,-1.33433747,0.39460436,0.92698061,-1.44696712,0.34863627,-0.56862903,0.31322438,0.0360898,1.17873716,0.087207,0.27431709,0.49252981,-2.16886187,1.05521142,-0.37108144,-1.82764506,-0.16271441,0.72980422,0.16271462,-0.62451303,0.13907103,-1.44769263,0.21785685,0.24918857,-0.86732578,-1.08871448,0.00370754,-0.53208458,-1.08990157,0.39807224,-0.58157003,0.82727545,-1.22247767,0.68852782,-0.50413102,-0.11178152,0.45311618,-0.80127478,0.74615586,0.50794804,-0.07854627,-0.74602461,0.53269708,0.16224985,-1.7996763,0.29562578,-0.46144873,-0.93130893,0.90383708,-0.48492819,-0.25609738,-0.22627139,-1.18570018,0.65561056,2.48927331,-0.10846088,0.73828393,0.357449,-1.47898591,-0.45544878,-0.73528951,0.23019345,1.78201795,-0.13136807,-0.31968695,-0.5170992,-0.14115641,1.29397845,0.82368314,-0.23615639,0.81380147,0.68993795,-1.46916401,-1.13520837,0.9212327,-0.87721854,-0.33028561,0.70752388,0.56833696,-0.11418402,-0.82287943,-0.27683702,-0.00490395,0.81354445,-0.15780532,-0.08844304,0.08248839,-0.26622707,-0.85299623,1.40412164,0.27459168,0.58320737,-0.44560665,0.23942342,0.62920296,-1.08319354,-0.08581574,-0.04672714,-0.55966878,-0.06346573,0.84888995,-1.12284374,0.57038516,-0.90307271,0.41617164,0.6171838,-0.52417022,0.57127488,-0.35103661,-0.84695756,-0.90337789,1.76477206,0.16262054,-0.33047482,0.69929504,-0.06756683,0.16750599,1.09149981,0.01612475,0.36673531,0.86069077,0.1534633,1.33159554,0.70354187,0.76304644,1.11024666,-0.30165607,-0.14452043,-0.24142936,-0.445079,0.62659407,-0.18449175,0.13116252,1.78976381,-0.48097438,-0.50390506,-0.75201982,-0.81212014,-0.81176746,-0.03084658,-1.11301041,1.48727155,-0.13407864,-0.05874419,-0.29810309,0.65662944,-0.51903105,-0.17462111,0.25012887,1.97189593,-0.31128222,-0.13538592,-0.11278212,-1.22557914,0.80509841,0.73957306,-1.25343823,0.69934142,0.36911839,-0.56627959,0.44955367,-0.46572113,-1.25579524,0.61207849,0.53363532,-0.32622877,0.15790702,1.1927948,0.00249473,0.48674673,-1.01161504,-0.0978124,0.36938772,0.2122993,-1.38828623,-0.83650291,1.14042854,-0.86673623,-0.11428406,0.36014232,-0.29415479,-0.86222267,1.01208937,-0.16609995,1.0947001,0.96423185,-0.12224062,0.35349581,-0.09882028,-1.19769156,0.20148683,-0.66282737,-0.99223393,0.39152512,-0.14572282,-2.1207099,1.08406317,-1.33245146,0.54973233,0.97744548,0.12505701,1.64279675,-0.2283729,0.82489729,-1.04286647,0.39601797,1.66386056,0.11163767,0.46503323,0.37467104,1.25679135,1.81007266,0.32094073,0.3802253,-0.54940379,-0.74160165,-0.94123554,0.94555986,-0.11160251,0.44176564,0.18802983,0.4783383,0.90217578,0.7493248,-0.22092685,-0.30858186,-0.51384342,-0.85779887,0.113616,-0.12138166,0.7778616,0.50922453,1.44816279,-0.15075186,-0.27706403,-1.71054244,0.08271654,0.58725148,0.20070422,0.44523302,-0.22372513,-0.69428235,1.17749512,0.90779459,0.35562387,-0.95563954,0.51319635,0.71627295,0.92552388,-1.20111465,0.74577057,-0.06490135,-0.92703784,-0.00668272,0.30749723,-0.05917868,0.43171301,1.49844813,0.94060314,-1.04394937,1.57067525,-0.98953992,0.35311291,1.22665775,1.52677202,-0.35123104,-0.11555581,-0.13350256,0.89988405,-0.85184658,-0.88430297,0.99522913,-0.09952545,0.42119592,1.71929264,-0.90134847,1.02619898,-1.38171256,-0.60886747,-0.71317065,-0.30962217,-2.94772601,0.00556415,0.6156317,1.54234445,0.09222336,0.09008487,-0.25636953,-1.00226331,-1.34325659,0.11385503,-0.12845442,0.96862137,-0.28087443,0.05652512,0.20123658,0.58852601,-0.2750811,0.31812599,-0.5261727,-0.07770035,-0.76608551,0.88668358,1.25527442,-0.13514352,0.4630982,-0.29559404,-0.0818496,-0.24021932,0.15276116,-0.03843404,0.73183239,-0.85391939,1.98730063,1.44430578,-0.65253562,-0.62534481,-0.72711593,-0.47226125,0.40503055,-0.76262349,-0.17882171,-1.52109683,0.30433005,0.16392176,1.33811688,0.39325476,-1.17853558,0.54755688,1.42860579,0.18518543,0.32035705,2.52159166,1.01756644,-1.26837707,1.10678256,-0.58040738,0.60446578,-0.89960319,0.38792568,0.61325157,0.19072966,0.42040244,-0.64600646,-1.06087995,-0.51640785,0.44422221,-0.19097593,0.15544041,-0.02342889,0.66561651,1.48002195,1.09186542,-0.28509635,0.36912814,0.53940529,-0.31239495,0.26389557,1.37842309,0.65852457,-1.21472764,-1.4042753,-0.14142711,1.05246758,0.61179918,0.70212287,-1.34003603,-0.75305939,-0.76888978,-0.19966356,1.05939829,0.99259853,-0.59276259,-0.62532336,0.81444538,1.34593046,0.29215989,-1.1924727,-0.18949215,-0.93789405,0.37178692,-0.6089052,-1.2331531,-0.2107528,0.08547933,-0.48951635,0.21252787,-0.94788533,0.04732942,-0.3597835,1.57596755,-0.76089418,1.79105318,0.22543474,0.32162219,-0.4885737,0.10518315,0.59268701,0.60398209,-0.93143302,-0.57496464,0.69804013,1.1750828,-0.38291162,0.02160409,-0.24341905,0.06722825,0.36897135,0.60322416,-0.73511505,0.0627253,-1.23664689,0.76087403,-0.93309247,0.54894018,-0.30769119,-0.5777632,-0.11934652,1.25590563,-0.80712682,-0.6652326,-0.58491069,0.12478938,-0.84170687,-1.13081801,0.99716836,0.04083636,-0.83277857,-0.76605433,-1.1213553,-0.22731952,-0.92887419,-1.20576251,-0.58390021,-0.66947746,-1.62718523,0.56736338,-0.46557704,0.07448103,0.24888155,-0.53153986,0.90990096,-0.06671415,0.21461296,-0.80715907,-0.82600391,0.21281931,-0.07711439,-2.28932428,1.19852662,0.30360785,-0.71935582,-1.54612708,-0.7239092,0.22245023,0.77099335,0.09214035,0.08412832,-0.82771224,0.68302238,-0.14484295,-0.34445301,1.41473985,1.17242551,-0.18990533,1.13792932,-1.31101549,0.29281011,1.01396763,0.89930451,-0.6009317,1.63406217,-0.36480856,0.69408071,0.17841884,-0.51744539,1.00856781,-0.46775705,-1.78061068,-0.21850947,-0.23958592,-0.63161719,-0.54660475,0.2946001,-0.5181247,-0.16635062,-0.52482164,-1.24121308,0.42721114,-1.47522402,1.45402277,0.72490436,-0.22627611,-1.62498021,1.27089751,-0.16084114,0.57020819,-0.12192514,0.67503977,-0.35559997,-0.94338626,0.22708297,0.19684562,-0.98064041,0.04299036,-0.51671779,-2.34678698,-0.61593831,-0.03246768,-0.5583244,-0.35627609,0.83380288,-0.36961365,0.97960442,-1.40804887,0.01173468,-0.76109612,0.98448563,0.53621292,-0.66874862,-0.03020619,0.03628533,-0.91407716,1.34694839,0.57184124,0.6941781,-0.1651759,0.02404667,-0.19908109,1.15679193,2.97941899,-0.71901464,0.77953535,-0.06277806,0.80921566,-1.78077793,0.90927237,0.72076684,0.83620226,1.7897495,-0.42691192,-0.38173103,-1.59842491,0.8315872,-1.39873242,-0.50238675,-0.99462336,-1.47952235,-0.40295124,-0.07234474,0.89710474,0.99184674,0.07779981,-0.27996239,-0.32804701,0.0208152,-0.11811085,0.44519711,0.54867017,2.01883388,-0.07236694,2.59607983,-0.7266556,-0.62749946,3.29693365,-0.60521251,-0.66628003
筛选工	-1.06710911,0.1549125,0.45064178,0.11616466,-0.40187731,-0.02232065,0.32844076,0.53375584,0.97807533,1.47820437,-1.33950686,-0.0054074,-0.30716857,-0.16390118,-0.70238799,0.93866014,-0.22695263,-0.39208394,0.99835509,1.60536706,-0.82612789,-0.68508464,-1.02415884,0.21248266,-0.11419437,-1.44680095,0.51775211,0.48657575,-0.82515466,-1.3331356,0.13189645,0.57669026,1.69998777,0.62451971,-0.19016859,-1.02141416,0.0927909,0.35007948,-1.49091876,1.12268758,0.57559049,0.60040963,0.22641554,-2.07247972,0.33269697,-1.18113673,0.30989355,0.70336056,0.15131733,0.90415925,1.71904659,0.92109221,-0.72192079,1.17284751,0.4245297,0.47852451,-0.53791094,-0.15125206,0.50712621,1.09129453,1.08637118,0.21265562,-1.61431384,-1.23535848,1.09362483,-0.56104553,0.64044327,-0.03822603,0.29372227,-0.38675216,0.48777136,-0.46186203,-0.30933413,0.15406765,-0.72913843,-0.70513707,1.44252121,-0.54677832,-0.0900412,0.59488785,-0.60578024,-0.23937568,-0.31112716,-0.8506279,0.6990658,1.13244033,-1.06230807,-0.90155095,0.16159919,-1.84048462,-0.08823545,-0.10987079,0.57853633,-0.80045301,0.03921242,-1.42201948,0.89314461,0.18107879,-0.84779358,-0.27733445,-0.70416272,-0.74067158,-1.55390632,-1.77871728,1.05297399,-0.86560285,-1.72038531,0.27363557,-0.31630546,1.51454091,-1.06121504,-1.07232881,-0.99056149,0.11875208,-0.17561719,-0.22318189,-0.56705236,0.26356831,0.55603075,1.76971245,0.22696857,0.71614712,-1.72639656,-1.08945155,-0.56852996,-1.00794673,0.97112513,-0.56947523,-2.47201991,1.13539159,0.07723542,1.16836727,-0.52890885,-0.03508466,0.43746859,-0.9977622,-1.68999982,0.50074416,-0.01439356,0.0094963,-0.62756014,0.72033387,0.2061007,0.45837587,1.09216762,-1.80206907,0.84745342,-1.3269912,-0.37634906,1.9870249,0.24038799,-0.85960978,1.30476379,-1.61848795,-0.52961022,0.04080532,1.26067483,0.06188906,1.51944709,-0.15723684,-0.19653894,-0.95385265,0.56619865,-0.95713842,1.70041239,-0.58012474,-0.25996447,-0.63723564,0.70973384,0.96578628,-0.96158516,0.55378467,-0.74638879,0.17551903,-0.87904263,0.42679033,1.59528923,-0.06547213,0.4096055,-0.38925418,0.74839318,0.90651053,0.32996267,-0.16277568,0.58483684,1.1490345,-0.18588717,-0.2545599,-0.9471758,0.36795959,-0.98725194,0.416857,0.35888034,0.53226584,0.41563645,-0.39217824,1.19695067,-1.828071,-0.61487627,-1.1164428,-0.12302162,-1.2778455,0.36165664,0.91324282,-1.40919638,0.33478504,-0.57482421,0.28974354,0.06497894,1.1889751,0.1297929,0.30150658,0.47554746,-2.15889502,1.06028199,-0.41897765,-1.78879571,-0.16707429,0.72848892,0.16147089,-0.65639472,0.0975305,-1.47835183,0.20248583,0.24147081,-0.87193596,-1.1233387,0.00107564,-0.54028416,-1.062163,0.39382738,-0.59398133,0.88576764,-1.17916083,0.70874268,-0.48547348,-0.0945593,0.44328421,-0.82302058,0.76655692,0.51247042,-0.10066462,-0.74009883,0.54027426,0.18924427,-1.84481847,0.3157143,-0.48358101,-0.89672756,0.92966902,-0.46624374,-0.29776961,-0.23257244,-1.18447852,0.64240777,2.53775334,-0.11656513,0.72910976,0.3827827,-1.56052125,-0.45636693,-0.7791338,0.24568275,1.77458096,-0.12133093,-0.27716258,-0.5056901,-0.15228899,1.27770627,0.81591034,-0.16433677,0.78297073,0.70235646,-1.45047784,-1.07992375,0.91761667,-0.85941869,-0.36115909,0.69527245,0.56063598,-0.09382687,-0.83934844,-0.29337674,0.01027448,0.82137263,-0.15715891,-0.15266845,0.09993996,-0.23241755,-0.89302814,1.41665387,0.26369381,0.62169921,-0.47135401,0.2493774,0.63620245,-1.10980248,-0.07649393,-0.03538783,-0.61453891,-0.01185601,0.85785282,-1.12493455,0.55673331,-0.89076364,0.41399041,0.62410569,-0.51436847,0.56580663,-0.34075743,-0.78848112,-0.92000705,1.72259104,0.17357776,-0.34749261,0.69783109,-0.0935074,0.14806075,1.08165312,0.00525249,0.38079104,0.81451321,0.13712639,1.33195841,0.75130534,0.75541854,1.05268562,-0.31734222,-0.12823822,-0.26912665,-0.45149904,0.67764246,-0.27386555,0.12903269,1.80421281,-0.52502793,-0.45634538,-0.77914369,-0.8461448,-0.85168016,-0.00978488,-1.05852175,1.47596633,-0.10945636,-0.07589395,-0.2839784,0.64457071,-0.47627988,-0.16182058,0.2245398,1.98408544,-0.30319089,-0.07665548,-0.1255503,-1.20578861,0.78544176,0.77676117,-1.23652709,0.66063625,0.35270953,-0.55831426,0.41056496,-0.46896869,-1.30052638,0.61574078,0.55735058,-0.33891422,0.15843113,1.24379468,0.00922189,0.45672926,-1.04394901,-0.12712303,0.35210806,0.22275904,-1.42135179,-0.86185044,1.11604226,-0.90091169,-0.1729759,0.36556464,-0.2798155,-0.84225416,0.96896994,-0.09528693,1.03301978,0.9675175,-0.14269975,0.37507051,-0.11965938,-1.22236753,0.22845443,-0.67023885,-1.0000093,0.37070164,-0.15043983,-2.1198535,1.02770984,-1.3395803,0.55485696,0.9868452,0.10600638,1.62126803,-0.24221846,0.8434881,-1.09656692,0.37589505,1.67735457,0.0806527,0.46866527,0.35071081,1.26980257,1.75159109,0.33985025,0.40200147,-0.54950047,-0.74558187,-0.94654858,0.90994489,-0.10525646,0.4302887,0.21697168,0.49305195,0.94203126,0.76700538,-0.2642321,-0.31329542,-0.48905832,-0.8571316,0.09012236,-0.09181876,0.79637802,0.51323432,1.42592323,-0.13944885,-0.20061453,-1.66418779,0.0783858,0.57143718,0.1882652,0.44891065,-0.23938534,-0.68847191,1.18095744,0.89672184,0.29834837,-0.94557971,0.48813382,0.69631898,0.96524268,-1.19016981,0.72081625,-0.04733045,-0.91853845,0.01011766,0.31122482,-0.05286162,0.4652718,1.51939297,0.97586727,-1.01464415,1.63971937,-0.97449541,0.37112331,1.24979663,1.5241735,-0.38431925,-0.11952987,-0.11958285,0.92154711,-0.80215865,-0.89669454,1.02566791,-0.12825453,0.42300573,1.69120181,-0.92974722,1.00229061,-1.43123555,-0.6541338,-0.72559243,-0.34160763,-2.95356274,0.03131902,0.60798246,1.50192583,0.11620994,0.09018484,-0.27290162,-1.01360226,-1.35069084,0.10554922,-0.13389231,0.9372679,-0.27855697,0.05060645,0.19357128,0.58091527,-0.23835281,0.31231004,-0.52271354,-0.1179173,-0.78018868,0.83619958,1.28257823,-0.16671245,0.46910867,-0.29116362,-0.0461898,-0.25282133,0.12936637,-0.08660141,0.72226888,-0.90424711,1.9407618,1.43963242,-0.62979639,-0.66782463,-0.68693602,-0.44711918,0.40879995,-0.78130662,-0.15609697,-1.51651359,0.26933283,0.16321012,1.36439538,0.3843475,-1.18118,0.54199445,1.36897182,0.21109168,0.34005797,2.51617694,0.97524101,-1.24493897,1.14261031,-0.57776052,0.59872741,-0.85911113,0.40438804,0.60401016,0.17333964,0.38835689,-0.6568923,-1.02873957,-0.53961086,0.45693511,-0.20509532,0.1789775,-0.00117858,0.6625675,1.45883608,1.10123849,-0.28901163,0.35394835,0.53347266,-0.31766266,0.25636029,1.38264108,0.66449773,-1.23229861,-1.41306865,-0.14510587,1.04190183,0.63837016,0.68254292,-1.34352374,-0.77525336,-0.74844968,-0.1959172,1.09936976,0.97019243,-0.55985653,-0.63305277,0.83005035,1.34083319,0.28602794,-1.23312926,-0.15274569,-0.99012202,0.32378325,-0.55441105,-1.20060337,-0.20534706,0.07189886,-0.49541879,0.22431965,-0.94040745,0.01828089,-0.34701693,1.61326528,-0.74340647,1.791098,0.20462164,0.34763208,-0.55345911,0.12431972,0.61454189,0.58865178,-0.94239426,-0.61538619,0.71427715,1.19748724,-0.38258535,0.00981445,-0.2160922,0.05218157,0.3418352,0.61359704,-0.75197619,0.0628534,-1.21272349,0.73303527,-0.95985204,0.51778269,-0.29321733,-0.5431233,-0.0824547,1.27312481,-0.85649955,-0.6730063,-0.53328466,0.10176803,-0.87602818,-1.12918711,1.03144157,0.0550363,-0.84244138,-0.7710647,-1.11116707,-0.25440726,-0.9756341,-1.18819964,-0.60626179,-0.67091358,-1.60748744,0.56146795,-0.42835718,-0.0011698,0.23797564,-0.54582244,0.84448338,-0.06589768,0.17034058,-0.82599258,-0.82739639,0.18419346,-0.13542014,-2.29113245,1.21204972,0.35654169,-0.73556632,-1.53129649,-0.70652992,0.20430639,0.7719233,0.07736832,0.09459505,-0.83701742,0.70934385,-0.16166529,-0.35285786,1.37008739,1.26166272,-0.16576101,1.13314223,-1.30747104,0.31847006,0.9845823,0.91321898,-0.6050871,1.61185706,-0.34140158,0.68965286,0.1799569,-0.51089686,0.97993946,-0.45766193,-1.78598332,-0.23337111,-0.21104141,-0.57911015,-0.51358473,0.28628853,-0.51789176,-0.21357572,-0.50566232,-1.18991852,0.44722062,-1.406551,1.4746201,0.71474063,-0.201213,-1.63402534,1.27263212,-0.13346128,0.56119508,-0.14346029,0.66245747,-0.35334405,-0.91738403,0.24113211,0.16870479,-0.98530501,0.08843921,-0.51831746,-2.36777759,-0.61639893,0.00386805,-0.56991333,-0.38112068,0.86507303,-0.4032611,0.91398776,-1.44986463,0.02651494,-0.74396646,1.00352097,0.52192038,-0.65339345,-0.0006693,0.02051569,-0.9253602,1.32000053,0.56377876,0.72767645,-0.15854105,0.03853036,-0.19741459,1.18986607,2.933429,-0.70033443,0.78160137,-0.02027871,0.83546197,-1.75758111,0.91111553,0.70475614,0.81933296,1.77810061,-0.40806246,-0.36062074,-1.61551833,0.87062407,-1.36322069,-0.47674909,-0.97380513,-1.47775769,-0.41800356,-0.0982777,0.88603479,0.99506778,0.07292895,-0.26504481,-0.35322875,-0.07605127,-0.10913318,0.42971182,0.54163003,1.98499751,-0.04693001,2.66895604,-0.72613603,-0.61859953,3.2957325,-0.60055125,-0.69082493
